<?xml version="1.0"?>
<opencv_storage>
<stage4>
  <maxWeakCount>6</maxWeakCount>
  <stageThreshold>-1.2493560314178467e+00</stageThreshold>
  <weakClassifiers>
    <_>
      <internalNodes>
        0 -1 1153092 -5.3379524499177933e-02</internalNodes>
      <leafValues>
        7.2929650545120239e-01 -8.7840670347213745e-01</leafValues></_>
    <_>
      <internalNodes>
        0 -1 1386289 -9.1604106128215790e-02</internalNodes>
      <leafValues>
        7.1980392932891846e-01 -6.0085082054138184e-01</leafValues></_>
    <_>
      <internalNodes>
        0 -1 95005 1.4245277643203735e-01</internalNodes>
      <leafValues>
        -7.9108428955078125e-01 4.8472169041633606e-01</leafValues></_>
    <_>
      <internalNodes>
        0 -1 1287018 1.7817679792642593e-02</internalNodes>
      <leafValues>
        -8.4775209426879883e-01 4.5387235283851624e-01</leafValues></_>
    <_>
      <internalNodes>
        0 -1 1010265 -4.5779231004416943e-03</internalNodes>
      <leafValues>
        2.9371878504753113e-01 -9.4086170196533203e-01</leafValues></_>
    <_>
      <internalNodes>
        0 -1 1093426 1.2932106619700789e-04</internalNodes>
      <leafValues>
        2.9921311140060425e-01 -9.0694260597229004e-01</leafValues></_></weakClassifiers></stage4>
</opencv_storage>
