<?xml version="1.0"?>
<opencv_storage>
<stage12>
  <maxWeakCount>7</maxWeakCount>
  <stageThreshold>-8.9092946052551270e-01</stageThreshold>
  <weakClassifiers>
    <_>
      <internalNodes>
        0 -1 1161743 -1.2203613005112857e-04</internalNodes>
      <leafValues>
        -7.3410403728485107e-01 5.2153110504150391e-01</leafValues></_>
    <_>
      <internalNodes>
        0 -1 1689994 1.5269683673977852e-02</internalNodes>
      <leafValues>
        -4.7165003418922424e-01 5.8834701776504517e-01</leafValues></_>
    <_>
      <internalNodes>
        0 -1 1163297 6.9187837652862072e-05</internalNodes>
      <leafValues>
        3.1986251473426819e-01 -8.6933350563049316e-01</leafValues></_>
    <_>
      <internalNodes>
        0 -1 959069 -1.5700291842222214e-02</internalNodes>
      <leafValues>
        2.3883281648159027e-01 -9.2070811986923218e-01</leafValues></_>
    <_>
      <internalNodes>
        0 -1 1234492 5.8139697648584843e-04</internalNodes>
      <leafValues>
        -6.7719948291778564e-01 4.1327345371246338e-01</leafValues></_>
    <_>
      <internalNodes>
        0 -1 70933 8.2434527575969696e-03</internalNodes>
      <leafValues>
        -4.0027827024459839e-01 7.2286862134933472e-01</leafValues></_>
    <_>
      <internalNodes>
        0 -1 15950 -2.8060374781489372e-02</internalNodes>
      <leafValues>
        8.5749334096908569e-01 -3.2330501079559326e-01</leafValues></_></weakClassifiers></stage12>
</opencv_storage>
