<?xml version="1.0"?>
<opencv_storage>
<cascade>
  <stageType>BOOST</stageType>
  <featureType>HAAR</featureType>
  <height>24</height>
  <width>24</width>
  <stageParams>
    <boostType>GAB</boostType>
    <minHitRate>9.9900001287460327e-01</minHitRate>
    <maxFalseAlarm>5.0000000000000000e-01</maxFalseAlarm>
    <weightTrimRate>9.4999999999999996e-01</weightTrimRate>
    <maxDepth>1</maxDepth>
    <maxWeakCount>100</maxWeakCount></stageParams>
  <featureParams>
    <maxCatCount>0</maxCatCount>
    <featSize>1</featSize>
    <mode>ALL</mode></featureParams>
  <stageNum>20</stageNum>
  <stages>
    <!-- stage 0 -->
    <_>
      <maxWeakCount>5</maxWeakCount>
      <stageThreshold>-1.3338518142700195e+00</stageThreshold>
      <weakClassifiers>
        <_>
          <internalNodes>
            0 -1 50 1.6424621641635895e-01</internalNodes>
          <leafValues>
            -9.0664273500442505e-01 8.6768937110900879e-01</leafValues></_>
        <_>
          <internalNodes>
            0 -1 40 1.0189099609851837e-01</internalNodes>
          <leafValues>
            -7.7760702371597290e-01 6.5892863273620605e-01</leafValues></_>
        <_>
          <internalNodes>
            0 -1 181 -9.9718272686004639e-03</internalNodes>
          <leafValues>
            8.9006882905960083e-01 -4.0344199538230896e-01</leafValues></_>
        <_>
          <internalNodes>
            0 -1 34 1.5446140430867672e-02</internalNodes>
          <leafValues>
            4.2544612288475037e-01 -9.6133434772491455e-01</leafValues></_>
        <_>
          <internalNodes>
            0 -1 86 5.4970089346170425e-02</internalNodes>
          <leafValues>
            3.2839381694793701e-01 -8.5505580902099609e-01</leafValues></_></weakClassifiers></_>
    <!-- stage 1 -->
    <_>
      <maxWeakCount>5</maxWeakCount>
      <stageThreshold>-8.6810219287872314e-01</stageThreshold>
      <weakClassifiers>
        <_>
          <internalNodes>
            0 -1 36 1.6658583283424377e-01</internalNodes>
          <leafValues>
            -7.6056337356567383e-01 8.0620157718658447e-01</leafValues></_>
        <_>
          <internalNodes>
            0 -1 176 -3.7787161767482758e-02</internalNodes>
          <leafValues>
            8.8441157341003418e-01 -4.0455898642539978e-01</leafValues></_>
        <_>
          <internalNodes>
            0 -1 88 2.1072015166282654e-02</internalNodes>
          <leafValues>
            -8.2458347082138062e-01 4.3475571274757385e-01</leafValues></_>
        <_>
          <internalNodes>
            0 -1 132 2.1982195903547108e-04</internalNodes>
          <leafValues>
            3.7104794383049011e-01 -7.5199574232101440e-01</leafValues></_>
        <_>
          <internalNodes>
            0 -1 130 -2.0520713180303574e-02</internalNodes>
          <leafValues>
            7.5055569410324097e-01 -3.8380166888237000e-01</leafValues></_></weakClassifiers></_>
    <!-- stage 2 -->
    <_>
      <maxWeakCount>7</maxWeakCount>
      <stageThreshold>-1.0901820659637451e+00</stageThreshold>
      <weakClassifiers>
        <_>
          <internalNodes>
            0 -1 32 1.9095283001661301e-02</internalNodes>
          <leafValues>
            -7.6168227195739746e-01 6.1945390701293945e-01</leafValues></_>
        <_>
          <internalNodes>
            0 -1 188 1.0348081588745117e-02</internalNodes>
          <leafValues>
            -4.1411477327346802e-01 7.6807278394699097e-01</leafValues></_>
        <_>
          <internalNodes>
            0 -1 99 -1.8226298561785370e-04</internalNodes>
          <leafValues>
            -9.8295503854751587e-01 3.2426491379737854e-01</leafValues></_>
        <_>
          <internalNodes>
            0 -1 98 2.7357405633665621e-04</internalNodes>
          <leafValues>
            2.7326434850692749e-01 -8.9419639110565186e-01</leafValues></_>
        <_>
          <internalNodes>
            0 -1 102 3.5243609454482794e-04</internalNodes>
          <leafValues>
            1.6036961972713470e-01 -9.8227244615554810e-01</leafValues></_>
        <_>
          <internalNodes>
            0 -1 79 -2.1089840447530150e-04</internalNodes>
          <leafValues>
            -8.2071554660797119e-01 2.0925562083721161e-01</leafValues></_>
        <_>
          <internalNodes>
            0 -1 9 4.5547887682914734e-02</internalNodes>
          <leafValues>
            2.8592121601104736e-01 -8.9392805099487305e-01</leafValues></_></weakClassifiers></_>
    <!-- stage 3 -->
    <_>
      <maxWeakCount>8</maxWeakCount>
      <stageThreshold>-1.0425314903259277e+00</stageThreshold>
      <weakClassifiers>
        <_>
          <internalNodes>
            0 -1 147 1.4914403436705470e-04</internalNodes>
          <leafValues>
            6.7672830820083618e-01 -5.1483422517776489e-01</leafValues></_>
        <_>
          <internalNodes>
            0 -1 142 1.3574797776527703e-04</internalNodes>
          <leafValues>
            4.0470647811889648e-01 -8.8026165962219238e-01</leafValues></_>
        <_>
          <internalNodes>
            0 -1 45 4.2676687240600586e-02</internalNodes>
          <leafValues>
            -6.0061413049697876e-01 4.6036341786384583e-01</leafValues></_>
        <_>
          <internalNodes>
            0 -1 199 8.2834325730800629e-03</internalNodes>
          <leafValues>
            -3.3723565936088562e-01 7.8205871582031250e-01</leafValues></_>
        <_>
          <internalNodes>
            0 -1 46 2.5329547934234142e-03</internalNodes>
          <leafValues>
            -2.6587465405464172e-01 9.7389990091323853e-01</leafValues></_>
        <_>
          <internalNodes>
            0 -1 73 1.0495828837156296e-01</internalNodes>
          <leafValues>
            3.4179940819740295e-01 -9.0281039476394653e-01</leafValues></_>
        <_>
          <internalNodes>
            0 -1 61 2.5642104446887970e-03</internalNodes>
          <leafValues>
            -2.8685623407363892e-01 9.5505481958389282e-01</leafValues></_>
        <_>
          <internalNodes>
            0 -1 171 1.6796218231320381e-02</internalNodes>
          <leafValues>
            -8.1811261177062988e-01 4.0000978112220764e-01</leafValues></_></weakClassifiers></_>
    <!-- stage 4 -->
    <_>
      <maxWeakCount>6</maxWeakCount>
      <stageThreshold>-7.3683172464370728e-01</stageThreshold>
      <weakClassifiers>
        <_>
          <internalNodes>
            0 -1 150 -2.7358511579222977e-04</internalNodes>
          <leafValues>
            -8.8571429252624512e-01 5.2840465307235718e-01</leafValues></_>
        <_>
          <internalNodes>
            0 -1 38 1.5447154641151428e-01</internalNodes>
          <leafValues>
            -7.0807665586471558e-01 4.5847293734550476e-01</leafValues></_>
        <_>
          <internalNodes>
            0 -1 113 -6.7373900674283504e-04</internalNodes>
          <leafValues>
            -9.6069604158401489e-01 3.1252557039260864e-01</leafValues></_>
        <_>
          <internalNodes>
            0 -1 115 3.4227280411869287e-04</internalNodes>
          <leafValues>
            2.2183924913406372e-01 -9.7391712665557861e-01</leafValues></_>
        <_>
          <internalNodes>
            0 -1 111 4.9344159197062254e-04</internalNodes>
          <leafValues>
            1.7699025571346283e-01 -9.0891069173812866e-01</leafValues></_>
        <_>
          <internalNodes>
            0 -1 60 5.1604588516056538e-03</internalNodes>
          <leafValues>
            2.5227618217468262e-01 -9.4391173124313354e-01</leafValues></_></weakClassifiers></_>
    <!-- stage 5 -->
    <_>
      <maxWeakCount>7</maxWeakCount>
      <stageThreshold>-1.1007813215255737e+00</stageThreshold>
      <weakClassifiers>
        <_>
          <internalNodes>
            0 -1 160 5.4748822003602982e-04</internalNodes>
          <leafValues>
            5.1367783546447754e-01 -9.7183096408843994e-01</leafValues></_>
        <_>
          <internalNodes>
            0 -1 120 -3.7378375418484211e-04</internalNodes>
          <leafValues>
            -6.6366475820541382e-01 5.1789522171020508e-01</leafValues></_>
        <_>
          <internalNodes>
            0 -1 106 5.2052522078156471e-03</internalNodes>
          <leafValues>
            -8.5481792688369751e-01 3.1716987490653992e-01</leafValues></_>
        <_>
          <internalNodes>
            0 -1 63 -3.1827199272811413e-03</internalNodes>
          <leafValues>
            8.8615566492080688e-01 -3.3247843384742737e-01</leafValues></_>
        <_>
          <internalNodes>
            0 -1 71 -2.6824965607374907e-04</internalNodes>
          <leafValues>
            -9.1257184743881226e-01 3.0654093623161316e-01</leafValues></_>
        <_>
          <internalNodes>
            0 -1 94 2.8649080195464194e-04</internalNodes>
          <leafValues>
            3.0182051658630371e-01 -8.0791574716567993e-01</leafValues></_>
        <_>
          <internalNodes>
            0 -1 41 1.5973379835486412e-02</internalNodes>
          <leafValues>
            -3.2473444938659668e-01 8.2221376895904541e-01</leafValues></_></weakClassifiers></_>
    <!-- stage 6 -->
    <_>
      <maxWeakCount>9</maxWeakCount>
      <stageThreshold>-1.5667105913162231e+00</stageThreshold>
      <weakClassifiers>
        <_>
          <internalNodes>
            0 -1 74 5.8047972619533539e-02</internalNodes>
          <leafValues>
            5.6360709667205811e-01 -8.3798885345458984e-01</leafValues></_>
        <_>
          <internalNodes>
            0 -1 165 8.4079187363386154e-03</internalNodes>
          <leafValues>
            -3.7667012214660645e-01 8.7799751758575439e-01</leafValues></_>
        <_>
          <internalNodes>
            0 -1 116 -5.3509022109210491e-04</internalNodes>
          <leafValues>
            -8.7933856248855591e-01 3.6528059840202332e-01</leafValues></_>
        <_>
          <internalNodes>
            0 -1 152 -7.8303022310137749e-03</internalNodes>
          <leafValues>
            8.7967181205749512e-01 -2.8052973747253418e-01</leafValues></_>
        <_>
          <internalNodes>
            0 -1 42 1.9022043794393539e-02</internalNodes>
          <leafValues>
            -7.7210444211959839e-01 3.3100241422653198e-01</leafValues></_>
        <_>
          <internalNodes>
            0 -1 190 -6.7348824813961983e-03</internalNodes>
          <leafValues>
            8.3698821067810059e-01 -2.8052896261215210e-01</leafValues></_>
        <_>
          <internalNodes>
            0 -1 64 -3.4058964811265469e-03</internalNodes>
          <leafValues>
            9.8150634765625000e-01 -2.0941650867462158e-01</leafValues></_>
        <_>
          <internalNodes>
            0 -1 16 -1.0043088346719742e-02</internalNodes>
          <leafValues>
            7.7673131227493286e-01 -2.2268773615360260e-01</leafValues></_>
        <_>
          <internalNodes>
            0 -1 55 -2.3746611550450325e-03</internalNodes>
          <leafValues>
            8.6392462253570557e-01 -2.1214853227138519e-01</leafValues></_></weakClassifiers></_>
    <!-- stage 7 -->
    <_>
      <maxWeakCount>10</maxWeakCount>
      <stageThreshold>-1.4683294296264648e+00</stageThreshold>
      <weakClassifiers>
        <_>
          <internalNodes>
            0 -1 102 -3.0257459729909897e-04</internalNodes>
          <leafValues>
            -5.2097904682159424e-01 6.7898833751678467e-01</leafValues></_>
        <_>
          <internalNodes>
            0 -1 100 -6.6945119760930538e-04</internalNodes>
          <leafValues>
            -8.9912849664688110e-01 3.4233930706977844e-01</leafValues></_>
        <_>
          <internalNodes>
            0 -1 143 -2.3215822875499725e-04</internalNodes>
          <leafValues>
            -8.6475259065628052e-01 3.4552654623985291e-01</leafValues></_>
        <_>
          <internalNodes>
            0 -1 7 -6.1289988458156586e-02</internalNodes>
          <leafValues>
            -8.7744528055191040e-01 1.6255611181259155e-01</leafValues></_>
        <_>
          <internalNodes>
            0 -1 84 1.9688415341079235e-04</internalNodes>
          <leafValues>
            2.2814764082431793e-01 -7.7974247932434082e-01</leafValues></_>
        <_>
          <internalNodes>
            0 -1 57 -3.6154180765151978e-02</internalNodes>
          <leafValues>
            7.5198030471801758e-01 -3.4118968248367310e-01</leafValues></_>
        <_>
          <internalNodes>
            0 -1 180 8.9777037501335144e-03</internalNodes>
          <leafValues>
            -2.9834711551666260e-01 7.2546023130416870e-01</leafValues></_>
        <_>
          <internalNodes>
            0 -1 103 1.5451377839781344e-04</internalNodes>
          <leafValues>
            2.4504701793193817e-01 -9.4584584236145020e-01</leafValues></_>
        <_>
          <internalNodes>
            0 -1 31 -5.7605197653174400e-03</internalNodes>
          <leafValues>
            7.1889859437942505e-01 -3.5956940054893494e-01</leafValues></_>
        <_>
          <internalNodes>
            0 -1 179 3.5001265350729227e-03</internalNodes>
          <leafValues>
            -2.6397076249122620e-01 7.5860136747360229e-01</leafValues></_></weakClassifiers></_>
    <!-- stage 8 -->
    <_>
      <maxWeakCount>10</maxWeakCount>
      <stageThreshold>-1.0041356086730957e+00</stageThreshold>
      <weakClassifiers>
        <_>
          <internalNodes>
            0 -1 103 -1.6027646779548377e-04</internalNodes>
          <leafValues>
            -5.0344824790954590e-01 6.7843139171600342e-01</leafValues></_>
        <_>
          <internalNodes>
            0 -1 117 2.2851611720398068e-04</internalNodes>
          <leafValues>
            2.6129657030105591e-01 -8.3998590707778931e-01</leafValues></_>
        <_>
          <internalNodes>
            0 -1 39 5.2550673484802246e-02</internalNodes>
          <leafValues>
            -7.1044754981994629e-01 2.7064761519432068e-01</leafValues></_>
        <_>
          <internalNodes>
            0 -1 201 -2.4639270268380642e-03</internalNodes>
          <leafValues>
            8.0913740396499634e-01 -2.7881753444671631e-01</leafValues></_>
        <_>
          <internalNodes>
            0 -1 30 -9.7873307764530182e-02</internalNodes>
          <leafValues>
            -9.3215209245681763e-01 1.9642283022403717e-01</leafValues></_>
        <_>
          <internalNodes>
            0 -1 15 1.2061915360391140e-02</internalNodes>
          <leafValues>
            2.2141335904598236e-01 -7.7445733547210693e-01</leafValues></_>
        <_>
          <internalNodes>
            0 -1 145 1.1030236259102821e-02</internalNodes>
          <leafValues>
            -2.8485065698623657e-01 6.4563310146331787e-01</leafValues></_>
        <_>
          <internalNodes>
            0 -1 182 -5.1795425824820995e-03</internalNodes>
          <leafValues>
            8.3615320920944214e-01 -2.8735408186912537e-01</leafValues></_>
        <_>
          <internalNodes>
            0 -1 127 -5.2592426072806120e-04</internalNodes>
          <leafValues>
            -8.1519883871078491e-01 2.8320226073265076e-01</leafValues></_>
        <_>
          <internalNodes>
            0 -1 80 -6.5584311960265040e-04</internalNodes>
          <leafValues>
            -8.3565956354141235e-01 2.1863475441932678e-01</leafValues></_></weakClassifiers></_>
    <!-- stage 9 -->
    <_>
      <maxWeakCount>8</maxWeakCount>
      <stageThreshold>-9.4657486677169800e-01</stageThreshold>
      <weakClassifiers>
        <_>
          <internalNodes>
            0 -1 96 -7.0425234735012054e-03</internalNodes>
          <leafValues>
            6.9472503662109375e-01 -3.0888575315475464e-01</leafValues></_>
        <_>
          <internalNodes>
            0 -1 112 -4.8983038868755102e-04</internalNodes>
          <leafValues>
            -8.2635319232940674e-01 3.1298837065696716e-01</leafValues></_>
        <_>
          <internalNodes>
            0 -1 114 1.6388468793593347e-04</internalNodes>
          <leafValues>
            2.5039562582969666e-01 -8.0955260992050171e-01</leafValues></_>
        <_>
          <internalNodes>
            0 -1 197 5.2207228727638721e-03</internalNodes>
          <leafValues>
            -3.0319181084632874e-01 6.9224637746810913e-01</leafValues></_>
        <_>
          <internalNodes>
            0 -1 198 7.8160092234611511e-03</internalNodes>
          <leafValues>
            -2.8228726983070374e-01 6.7748534679412842e-01</leafValues></_>
        <_>
          <internalNodes>
            0 -1 72 -1.2454271316528320e-02</internalNodes>
          <leafValues>
            3.1330981850624084e-01 -7.0707875490188599e-01</leafValues></_>
        <_>
          <internalNodes>
            0 -1 118 -2.4389239843003452e-04</internalNodes>
          <leafValues>
            -4.6804487705230713e-01 4.1281071305274963e-01</leafValues></_>
        <_>
          <internalNodes>
            0 -1 126 -3.4106291830539703e-02</internalNodes>
          <leafValues>
            8.6661505699157715e-01 -2.8176629543304443e-01</leafValues></_></weakClassifiers></_>
    <!-- stage 10 -->
    <_>
      <maxWeakCount>11</maxWeakCount>
      <stageThreshold>-7.5452297925949097e-01</stageThreshold>
      <weakClassifiers>
        <_>
          <internalNodes>
            0 -1 162 1.7014401964843273e-04</internalNodes>
          <leafValues>
            5.7238733768463135e-01 -3.5368043184280396e-01</leafValues></_>
        <_>
          <internalNodes>
            0 -1 83 -1.5975095331668854e-02</internalNodes>
          <leafValues>
            3.2677069306373596e-01 -7.2239667177200317e-01</leafValues></_>
        <_>
          <internalNodes>
            0 -1 91 1.8260403303429484e-03</internalNodes>
          <leafValues>
            -8.1980663537979126e-01 1.9837482273578644e-01</leafValues></_>
        <_>
          <internalNodes>
            0 -1 167 -8.3206631243228912e-03</internalNodes>
          <leafValues>
            6.8891227245330811e-01 -2.6530385017395020e-01</leafValues></_>
        <_>
          <internalNodes>
            0 -1 148 1.3061465695500374e-02</internalNodes>
          <leafValues>
            -2.0667219161987305e-01 6.6400635242462158e-01</leafValues></_>
        <_>
          <internalNodes>
            0 -1 90 -1.7825173214077950e-02</internalNodes>
          <leafValues>
            2.5645780563354492e-01 -6.5077024698257446e-01</leafValues></_>
        <_>
          <internalNodes>
            0 -1 12 -1.5571331977844238e-01</internalNodes>
          <leafValues>
            -8.6259055137634277e-01 1.8992924690246582e-01</leafValues></_>
        <_>
          <internalNodes>
            0 -1 3 6.0747303068637848e-03</internalNodes>
          <leafValues>
            -4.4965308904647827e-01 3.3913412690162659e-01</leafValues></_>
        <_>
          <internalNodes>
            0 -1 163 3.4028769005089998e-04</internalNodes>
          <leafValues>
            1.2311267852783203e-01 -1.</leafValues></_>
        <_>
          <internalNodes>
            0 -1 62 3.3805987332016230e-03</internalNodes>
          <leafValues>
            -2.4541565775871277e-01 7.5512659549713135e-01</leafValues></_>
        <_>
          <internalNodes>
            0 -1 29 2.0982554182410240e-02</internalNodes>
          <leafValues>
            -1.4660178124904633e-01 8.4955626726150513e-01</leafValues></_></weakClassifiers></_>
    <!-- stage 11 -->
    <_>
      <maxWeakCount>13</maxWeakCount>
      <stageThreshold>-9.0138816833496094e-01</stageThreshold>
      <weakClassifiers>
        <_>
          <internalNodes>
            0 -1 174 -4.1992246406152844e-04</internalNodes>
          <leafValues>
            -4.3021032214164734e-01 5.8031570911407471e-01</leafValues></_>
        <_>
          <internalNodes>
            0 -1 78 -1.6282757860608399e-04</internalNodes>
          <leafValues>
            -8.8703835010528564e-01 2.0292329788208008e-01</leafValues></_>
        <_>
          <internalNodes>
            0 -1 203 -2.9929270967841148e-02</internalNodes>
          <leafValues>
            7.3486816883087158e-01 -2.3057574033737183e-01</leafValues></_>
        <_>
          <internalNodes>
            0 -1 95 4.5731180580332875e-04</internalNodes>
          <leafValues>
            2.1250149607658386e-01 -8.1296801567077637e-01</leafValues></_>
        <_>
          <internalNodes>
            0 -1 124 3.8011454045772552e-02</internalNodes>
          <leafValues>
            -2.6204541325569153e-01 7.0066988468170166e-01</leafValues></_>
        <_>
          <internalNodes>
            0 -1 49 -3.0436704400926828e-03</internalNodes>
          <leafValues>
            8.4190011024475098e-01 -1.1603173613548279e-01</leafValues></_>
        <_>
          <internalNodes>
            0 -1 152 -8.2868635654449463e-03</internalNodes>
          <leafValues>
            7.2723782062530518e-01 -1.9778850674629211e-01</leafValues></_>
        <_>
          <internalNodes>
            0 -1 149 5.2572377026081085e-02</internalNodes>
          <leafValues>
            -1.7918948829174042e-01 8.3127790689468384e-01</leafValues></_>
        <_>
          <internalNodes>
            0 -1 4 2.5661803781986237e-02</internalNodes>
          <leafValues>
            2.4836730957031250e-01 -7.6370817422866821e-01</leafValues></_>
        <_>
          <internalNodes>
            0 -1 48 3.8931122981011868e-03</internalNodes>
          <leafValues>
            -2.4440096318721771e-01 8.2306027412414551e-01</leafValues></_>
        <_>
          <internalNodes>
            0 -1 20 4.6570956707000732e-02</internalNodes>
          <leafValues>
            2.8815883398056030e-01 -5.9812629222869873e-01</leafValues></_>
        <_>
          <internalNodes>
            0 -1 52 -5.5005149915814400e-03</internalNodes>
          <leafValues>
            5.2558416128158569e-01 -2.7611249685287476e-01</leafValues></_>
        <_>
          <internalNodes>
            0 -1 92 -1.2075413251295686e-03</internalNodes>
          <leafValues>
            -9.8484671115875244e-01 1.7006474733352661e-01</leafValues></_></weakClassifiers></_>
    <!-- stage 12 -->
    <_>
      <maxWeakCount>16</maxWeakCount>
      <stageThreshold>-1.2522747516632080e+00</stageThreshold>
      <weakClassifiers>
        <_>
          <internalNodes>
            0 -1 128 -7.4186878919135779e-05</internalNodes>
          <leafValues>
            -4.4842106103897095e-01 5.4488891363143921e-01</leafValues></_>
        <_>
          <internalNodes>
            0 -1 110 4.3655820190906525e-03</internalNodes>
          <leafValues>
            -7.9236960411071777e-01 2.5053226947784424e-01</leafValues></_>
        <_>
          <internalNodes>
            0 -1 141 1.9491667626425624e-04</internalNodes>
          <leafValues>
            1.6942881047725677e-01 -7.7958732843399048e-01</leafValues></_>
        <_>
          <internalNodes>
            0 -1 121 5.0784600898623466e-03</internalNodes>
          <leafValues>
            -2.7460047602653503e-01 4.9615904688835144e-01</leafValues></_>
        <_>
          <internalNodes>
            0 -1 169 4.5904539525508881e-02</internalNodes>
          <leafValues>
            -2.4520406126976013e-01 5.9251862764358521e-01</leafValues></_>
        <_>
          <internalNodes>
            0 -1 174 3.4553257864899933e-04</internalNodes>
          <leafValues>
            2.1384276449680328e-01 -7.9068952798843384e-01</leafValues></_>
        <_>
          <internalNodes>
            0 -1 25 -2.5611709803342819e-02</internalNodes>
          <leafValues>
            7.8134328126907349e-01 -2.2299815714359283e-01</leafValues></_>
        <_>
          <internalNodes>
            0 -1 43 2.9007066041231155e-03</internalNodes>
          <leafValues>
            -1.9007979333400726e-01 7.7424681186676025e-01</leafValues></_>
        <_>
          <internalNodes>
            0 -1 178 -2.6590751949697733e-03</internalNodes>
          <leafValues>
            5.8308374881744385e-01 -2.4879838526248932e-01</leafValues></_>
        <_>
          <internalNodes>
            0 -1 177 -8.5847044829279184e-04</internalNodes>
          <leafValues>
            -7.7435916662216187e-01 2.4888470768928528e-01</leafValues></_>
        <_>
          <internalNodes>
            0 -1 35 -2.2594772279262543e-02</internalNodes>
          <leafValues>
            7.8900915384292603e-01 -2.4379406869411469e-01</leafValues></_>
        <_>
          <internalNodes>
            0 -1 137 7.7832215465605259e-03</internalNodes>
          <leafValues>
            -1.5125153958797455e-01 6.4502829313278198e-01</leafValues></_>
        <_>
          <internalNodes>
            0 -1 177 2.1662541257683188e-04</internalNodes>
          <leafValues>
            2.0659253001213074e-01 -6.2583893537521362e-01</leafValues></_>
        <_>
          <internalNodes>
            0 -1 155 -2.3646766785532236e-03</internalNodes>
          <leafValues>
            8.0612051486968994e-01 -1.8489193916320801e-01</leafValues></_>
        <_>
          <internalNodes>
            0 -1 140 3.0926413834095001e-02</internalNodes>
          <leafValues>
            -2.5844347476959229e-01 4.8983237147331238e-01</leafValues></_>
        <_>
          <internalNodes>
            0 -1 77 4.8813596367835999e-03</internalNodes>
          <leafValues>
            -3.7374958395957947e-01 3.7941142916679382e-01</leafValues></_></weakClassifiers></_>
    <!-- stage 13 -->
    <_>
      <maxWeakCount>12</maxWeakCount>
      <stageThreshold>-1.1426442861557007e+00</stageThreshold>
      <weakClassifiers>
        <_>
          <internalNodes>
            0 -1 81 1.0481593199074268e-03</internalNodes>
          <leafValues>
            6.1139369010925293e-01 -3.2576984167098999e-01</leafValues></_>
        <_>
          <internalNodes>
            0 -1 108 -2.0015945483464748e-04</internalNodes>
          <leafValues>
            -9.4954103231430054e-01 1.9605101644992828e-01</leafValues></_>
        <_>
          <internalNodes>
            0 -1 107 8.4965601563453674e-03</internalNodes>
          <leafValues>
            -5.8439379930496216e-01 2.1961894631385803e-01</leafValues></_>
        <_>
          <internalNodes>
            0 -1 161 7.8034728765487671e-02</internalNodes>
          <leafValues>
            1.5300124883651733e-01 -8.0749034881591797e-01</leafValues></_>
        <_>
          <internalNodes>
            0 -1 125 2.7415729127824306e-03</internalNodes>
          <leafValues>
            -9.2692750692367554e-01 1.1475020647048950e-01</leafValues></_>
        <_>
          <internalNodes>
            0 -1 98 2.6156468084082007e-04</internalNodes>
          <leafValues>
            1.2844866514205933e-01 -8.1648403406143188e-01</leafValues></_>
        <_>
          <internalNodes>
            0 -1 97 -2.3547122254967690e-03</internalNodes>
          <leafValues>
            -1. 1.1244316399097443e-01</leafValues></_>
        <_>
          <internalNodes>
            0 -1 44 -2.1413534879684448e-02</internalNodes>
          <leafValues>
            9.1046160459518433e-01 -1.9924181699752808e-01</leafValues></_>
        <_>
          <internalNodes>
            0 -1 53 -6.6542243584990501e-03</internalNodes>
          <leafValues>
            6.3169389963150024e-01 -2.1186169981956482e-01</leafValues></_>
        <_>
          <internalNodes>
            0 -1 186 7.1435552090406418e-03</internalNodes>
          <leafValues>
            -2.0524339377880096e-01 6.7817729711532593e-01</leafValues></_>
        <_>
          <internalNodes>
            0 -1 206 3.1803851015865803e-03</internalNodes>
          <leafValues>
            2.5006347894668579e-01 -6.5372216701507568e-01</leafValues></_>
        <_>
          <internalNodes>
            0 -1 185 2.6158755645155907e-04</internalNodes>
          <leafValues>
            3.7404119968414307e-01 -4.0092864632606506e-01</leafValues></_></weakClassifiers></_>
    <!-- stage 14 -->
    <_>
      <maxWeakCount>16</maxWeakCount>
      <stageThreshold>-1.3199114799499512e+00</stageThreshold>
      <weakClassifiers>
        <_>
          <internalNodes>
            0 -1 175 2.7101125568151474e-02</internalNodes>
          <leafValues>
            -2.3984272778034210e-01 6.9653522968292236e-01</leafValues></_>
        <_>
          <internalNodes>
            0 -1 26 -8.9439168572425842e-02</internalNodes>
          <leafValues>
            -8.1409043073654175e-01 2.6490214467048645e-01</leafValues></_>
        <_>
          <internalNodes>
            0 -1 60 -2.2895669098943472e-03</internalNodes>
          <leafValues>
            1.8365350365638733e-01 -7.3926991224288940e-01</leafValues></_>
        <_>
          <internalNodes>
            0 -1 138 1.8430022522807121e-02</internalNodes>
          <leafValues>
            -2.4756747484207153e-01 6.1646360158920288e-01</leafValues></_>
        <_>
          <internalNodes>
            0 -1 200 1.0087443515658379e-02</internalNodes>
          <leafValues>
            -2.3807400465011597e-01 7.4996161460876465e-01</leafValues></_>
        <_>
          <internalNodes>
            0 -1 146 4.6877481509000063e-04</internalNodes>
          <leafValues>
            3.8549691438674927e-01 -4.3063119053840637e-01</leafValues></_>
        <_>
          <internalNodes>
            0 -1 133 -1.6651399433612823e-02</internalNodes>
          <leafValues>
            7.8445488214492798e-01 -1.6917373239994049e-01</leafValues></_>
        <_>
          <internalNodes>
            0 -1 63 -3.6456054076552391e-03</internalNodes>
          <leafValues>
            7.4022316932678223e-01 -1.7253242433071136e-01</leafValues></_>
        <_>
          <internalNodes>
            0 -1 23 -7.9292371869087219e-02</internalNodes>
          <leafValues>
            6.8402713537216187e-01 -1.5802866220474243e-01</leafValues></_>
        <_>
          <internalNodes>
            0 -1 168 -4.5057833194732666e-03</internalNodes>
          <leafValues>
            6.5779989957809448e-01 -2.1003127098083496e-01</leafValues></_>
        <_>
          <internalNodes>
            0 -1 132 6.0610077343881130e-04</internalNodes>
          <leafValues>
            2.3031385242938995e-01 -6.5317189693450928e-01</leafValues></_>
        <_>
          <internalNodes>
            0 -1 170 -5.2217594347894192e-03</internalNodes>
          <leafValues>
            7.1483153104782104e-01 -2.3371693491935730e-01</leafValues></_>
        <_>
          <internalNodes>
            0 -1 134 8.6041893810033798e-03</internalNodes>
          <leafValues>
            -1.0424273461103439e-01 8.2056689262390137e-01</leafValues></_>
        <_>
          <internalNodes>
            0 -1 1 -4.1732192039489746e-03</internalNodes>
          <leafValues>
            -6.4998596906661987e-01 2.1592228114604950e-01</leafValues></_>
        <_>
          <internalNodes>
            0 -1 187 3.3428338356316090e-03</internalNodes>
          <leafValues>
            -1.7643690109252930e-01 8.6668688058853149e-01</leafValues></_>
        <_>
          <internalNodes>
            0 -1 2 -1.4117196202278137e-01</internalNodes>
          <leafValues>
            -7.3891764879226685e-01 2.2066698968410492e-01</leafValues></_></weakClassifiers></_>
    <!-- stage 15 -->
    <_>
      <maxWeakCount>17</maxWeakCount>
      <stageThreshold>-1.4819837808609009e+00</stageThreshold>
      <weakClassifiers>
        <_>
          <internalNodes>
            0 -1 18 7.0613019168376923e-02</internalNodes>
          <leafValues>
            4.2814370989799500e-01 -6.5151512622833252e-01</leafValues></_>
        <_>
          <internalNodes>
            0 -1 189 -2.5127833709120750e-02</internalNodes>
          <leafValues>
            8.6660182476043701e-01 -1.5509262681007385e-01</leafValues></_>
        <_>
          <internalNodes>
            0 -1 24 -2.4612845852971077e-02</internalNodes>
          <leafValues>
            8.0377805233001709e-01 -1.2891599535942078e-01</leafValues></_>
        <_>
          <internalNodes>
            0 -1 54 -1.8507987260818481e-02</internalNodes>
          <leafValues>
            -6.6905635595321655e-01 1.9986249506473541e-01</leafValues></_>
        <_>
          <internalNodes>
            0 -1 63 -4.3648383580148220e-03</internalNodes>
          <leafValues>
            7.4801373481750488e-01 -1.8726943433284760e-01</leafValues></_>
        <_>
          <internalNodes>
            0 -1 69 -8.2795545458793640e-03</internalNodes>
          <leafValues>
            1.6725824773311615e-01 -8.1146252155303955e-01</leafValues></_>
        <_>
          <internalNodes>
            0 -1 193 4.1027508676052094e-02</internalNodes>
          <leafValues>
            1.9237157702445984e-01 -7.5614851713180542e-01</leafValues></_>
        <_>
          <internalNodes>
            0 -1 183 4.7844359651207924e-03</internalNodes>
          <leafValues>
            1.3170954585075378e-01 -7.8156405687332153e-01</leafValues></_>
        <_>
          <internalNodes>
            0 -1 166 9.1349687427282333e-03</internalNodes>
          <leafValues>
            -2.8841468691825867e-01 6.5878123044967651e-01</leafValues></_>
        <_>
          <internalNodes>
            0 -1 19 -1.7200591973960400e-03</internalNodes>
          <leafValues>
            -7.3116940259933472e-01 2.5469505786895752e-01</leafValues></_>
        <_>
          <internalNodes>
            0 -1 66 -1.4730546623468399e-02</internalNodes>
          <leafValues>
            7.6000005006790161e-01 -1.9665151834487915e-01</leafValues></_>
        <_>
          <internalNodes>
            0 -1 157 1.1342950165271759e-02</internalNodes>
          <leafValues>
            -2.0266667008399963e-01 6.4734399318695068e-01</leafValues></_>
        <_>
          <internalNodes>
            0 -1 87 1.3190073892474174e-02</internalNodes>
          <leafValues>
            -1.9733494520187378e-01 6.6864293813705444e-01</leafValues></_>
        <_>
          <internalNodes>
            0 -1 184 1.4144679531455040e-02</internalNodes>
          <leafValues>
            -1.7664313316345215e-01 6.0190570354461670e-01</leafValues></_>
        <_>
          <internalNodes>
            0 -1 173 1.3805559836328030e-02</internalNodes>
          <leafValues>
            -2.0501063764095306e-01 6.7733013629913330e-01</leafValues></_>
        <_>
          <internalNodes>
            0 -1 8 8.2880645990371704e-02</internalNodes>
          <leafValues>
            1.7355594038963318e-01 -9.9092257022857666e-01</leafValues></_>
        <_>
          <internalNodes>
            0 -1 65 2.0507136359810829e-02</internalNodes>
          <leafValues>
            -2.4959701299667358e-01 6.2301874160766602e-01</leafValues></_></weakClassifiers></_>
    <!-- stage 16 -->
    <_>
      <maxWeakCount>16</maxWeakCount>
      <stageThreshold>-1.1958053112030029e+00</stageThreshold>
      <weakClassifiers>
        <_>
          <internalNodes>
            0 -1 128 -7.7002609032206237e-05</internalNodes>
          <leafValues>
            -4.1906872391700745e-01 5.1261967420578003e-01</leafValues></_>
        <_>
          <internalNodes>
            0 -1 40 1.0729368031024933e-01</internalNodes>
          <leafValues>
            -7.1643143892288208e-01 2.6453915238380432e-01</leafValues></_>
        <_>
          <internalNodes>
            0 -1 22 4.0657564997673035e-02</internalNodes>
          <leafValues>
            1.9814231991767883e-01 -6.2815248966217041e-01</leafValues></_>
        <_>
          <internalNodes>
            0 -1 0 -1.7891549505293369e-03</internalNodes>
          <leafValues>
            -7.2562092542648315e-01 1.5143282711505890e-01</leafValues></_>
        <_>
          <internalNodes>
            0 -1 131 2.2507103858515620e-04</internalNodes>
          <leafValues>
            1.3746806979179382e-01 -8.0634188652038574e-01</leafValues></_>
        <_>
          <internalNodes>
            0 -1 33 1.5864834189414978e-02</internalNodes>
          <leafValues>
            -2.2374863922595978e-01 6.5846103429794312e-01</leafValues></_>
        <_>
          <internalNodes>
            0 -1 27 -1.7522916197776794e-02</internalNodes>
          <leafValues>
            7.9506087303161621e-01 -1.8343652784824371e-01</leafValues></_>
        <_>
          <internalNodes>
            0 -1 5 1.3953957022749819e-05</internalNodes>
          <leafValues>
            -3.7437430024147034e-01 3.5893341898918152e-01</leafValues></_>
        <_>
          <internalNodes>
            0 -1 101 5.3473276784643531e-04</internalNodes>
          <leafValues>
            1.4769364893436432e-01 -9.0775680541992188e-01</leafValues></_>
        <_>
          <internalNodes>
            0 -1 59 -2.4356415495276451e-02</internalNodes>
          <leafValues>
            4.9761405587196350e-01 -2.6684185862541199e-01</leafValues></_>
        <_>
          <internalNodes>
            0 -1 76 -3.6310185678303242e-03</internalNodes>
          <leafValues>
            7.8177118301391602e-01 -1.6770099103450775e-01</leafValues></_>
        <_>
          <internalNodes>
            0 -1 196 -1.7041044309735298e-02</internalNodes>
          <leafValues>
            -7.0635354518890381e-01 2.1745029091835022e-01</leafValues></_>
        <_>
          <internalNodes>
            0 -1 70 -6.9349375553429127e-03</internalNodes>
          <leafValues>
            2.1378757059574127e-01 -6.7886471748352051e-01</leafValues></_>
        <_>
          <internalNodes>
            0 -1 112 5.2731228061020374e-04</internalNodes>
          <leafValues>
            1.0168867558240891e-01 -9.6107912063598633e-01</leafValues></_>
        <_>
          <internalNodes>
            0 -1 105 -3.7122110370546579e-03</internalNodes>
          <leafValues>
            8.1527262926101685e-01 -1.8399548530578613e-01</leafValues></_>
        <_>
          <internalNodes>
            0 -1 17 -1.8412981182336807e-02</internalNodes>
          <leafValues>
            -8.2988268136978149e-01 1.8257181346416473e-01</leafValues></_></weakClassifiers></_>
    <!-- stage 17 -->
    <_>
      <maxWeakCount>15</maxWeakCount>
      <stageThreshold>-9.1503155231475830e-01</stageThreshold>
      <weakClassifiers>
        <_>
          <internalNodes>
            0 -1 139 2.3440882563591003e-02</internalNodes>
          <leafValues>
            -1.7836257815361023e-01 5.6986898183822632e-01</leafValues></_>
        <_>
          <internalNodes>
            0 -1 204 -1.1621302366256714e-01</internalNodes>
          <leafValues>
            -8.2823759317398071e-01 1.8551774322986603e-01</leafValues></_>
        <_>
          <internalNodes>
            0 -1 56 -7.5876682996749878e-02</internalNodes>
          <leafValues>
            -7.0054680109024048e-01 1.6023422777652740e-01</leafValues></_>
        <_>
          <internalNodes>
            0 -1 156 -1.8885411322116852e-02</internalNodes>
          <leafValues>
            8.1238633394241333e-01 -1.8003730475902557e-01</leafValues></_>
        <_>
          <internalNodes>
            0 -1 158 1.1210165917873383e-02</internalNodes>
          <leafValues>
            -2.5483840703964233e-01 5.8825933933258057e-01</leafValues></_>
        <_>
          <internalNodes>
            0 -1 135 8.7523013353347778e-03</internalNodes>
          <leafValues>
            -2.1218152344226837e-01 5.2096378803253174e-01</leafValues></_>
        <_>
          <internalNodes>
            0 -1 51 2.0665640011429787e-02</internalNodes>
          <leafValues>
            -1.6977919638156891e-01 5.8740001916885376e-01</leafValues></_>
        <_>
          <internalNodes>
            0 -1 154 2.2340027615427971e-02</internalNodes>
          <leafValues>
            -2.4761551618576050e-01 5.3391480445861816e-01</leafValues></_>
        <_>
          <internalNodes>
            0 -1 85 4.2879521846771240e-02</internalNodes>
          <leafValues>
            -7.7649921178817749e-01 2.1033631265163422e-01</leafValues></_>
        <_>
          <internalNodes>
            0 -1 47 -9.1012939810752869e-03</internalNodes>
          <leafValues>
            7.0110541582107544e-01 -2.2081692516803741e-01</leafValues></_>
        <_>
          <internalNodes>
            0 -1 82 1.6621292161289603e-04</internalNodes>
          <leafValues>
            2.2446155548095703e-01 -7.0199185609817505e-01</leafValues></_>
        <_>
          <internalNodes>
            0 -1 68 3.1982224900275469e-03</internalNodes>
          <leafValues>
            -1.9641110301017761e-01 7.8555709123611450e-01</leafValues></_>
        <_>
          <internalNodes>
            0 -1 208 -1.0449150577187538e-03</internalNodes>
          <leafValues>
            -5.6036895513534546e-01 2.6035663485527039e-01</leafValues></_>
        <_>
          <internalNodes>
            0 -1 122 2.3892953991889954e-02</internalNodes>
          <leafValues>
            -1.7346331477165222e-01 9.2365461587905884e-01</leafValues></_>
        <_>
          <internalNodes>
            0 -1 14 -6.7526876926422119e-02</internalNodes>
          <leafValues>
            -9.6794658899307251e-01 1.5817795693874359e-01</leafValues></_></weakClassifiers></_>
    <!-- stage 18 -->
    <_>
      <maxWeakCount>17</maxWeakCount>
      <stageThreshold>-1.2404567003250122e+00</stageThreshold>
      <weakClassifiers>
        <_>
          <internalNodes>
            0 -1 144 8.9923935011029243e-03</internalNodes>
          <leafValues>
            -1.1913357675075531e-01 6.4889466762542725e-01</leafValues></_>
        <_>
          <internalNodes>
            0 -1 194 -2.3872775956988335e-02</internalNodes>
          <leafValues>
            6.5501111745834351e-01 -1.6734503209590912e-01</leafValues></_>
        <_>
          <internalNodes>
            0 -1 119 -4.0438224095851183e-04</internalNodes>
          <leafValues>
            -8.7790471315383911e-01 1.5468230843544006e-01</leafValues></_>
        <_>
          <internalNodes>
            0 -1 202 1.2356992810964584e-01</internalNodes>
          <leafValues>
            1.4129257202148438e-01 -7.0083272457122803e-01</leafValues></_>
        <_>
          <internalNodes>
            0 -1 151 4.8938682302832603e-03</internalNodes>
          <leafValues>
            -2.9183351993560791e-01 4.8165443539619446e-01</leafValues></_>
        <_>
          <internalNodes>
            0 -1 89 1.0124109685420990e-01</internalNodes>
          <leafValues>
            2.0819588005542755e-01 -8.7407386302947998e-01</leafValues></_>
        <_>
          <internalNodes>
            0 -1 10 8.3653368055820465e-03</internalNodes>
          <leafValues>
            2.7201622724533081e-01 -4.7832599282264709e-01</leafValues></_>
        <_>
          <internalNodes>
            0 -1 172 -3.7089746445417404e-02</internalNodes>
          <leafValues>
            7.9753172397613525e-01 -1.9937506318092346e-01</leafValues></_>
        <_>
          <internalNodes>
            0 -1 6 -1.7932372167706490e-02</internalNodes>
          <leafValues>
            -6.4051312208175659e-01 2.4718880653381348e-01</leafValues></_>
        <_>
          <internalNodes>
            0 -1 195 -6.2909275293350220e-02</internalNodes>
          <leafValues>
            -8.0042380094528198e-01 1.4649380743503571e-01</leafValues></_>
        <_>
          <internalNodes>
            0 -1 207 -1.4760366175323725e-03</internalNodes>
          <leafValues>
            -7.1095794439315796e-01 1.4707207679748535e-01</leafValues></_>
        <_>
          <internalNodes>
            0 -1 136 5.6637980043888092e-02</internalNodes>
          <leafValues>
            -1.5763950347900391e-01 7.4390184879302979e-01</leafValues></_>
        <_>
          <internalNodes>
            0 -1 93 -8.1064194091595709e-05</internalNodes>
          <leafValues>
            -3.9113122224807739e-01 3.3804342150688171e-01</leafValues></_>
        <_>
          <internalNodes>
            0 -1 75 -4.0533831343054771e-03</internalNodes>
          <leafValues>
            8.8767349720001221e-01 -1.5531799197196960e-01</leafValues></_>
        <_>
          <internalNodes>
            0 -1 109 -2.8808205388486385e-04</internalNodes>
          <leafValues>
            -8.1954461336135864e-01 1.9697967171669006e-01</leafValues></_>
        <_>
          <internalNodes>
            0 -1 58 1.4214774593710899e-02</internalNodes>
          <leafValues>
            -2.3575326800346375e-01 5.5395984649658203e-01</leafValues></_>
        <_>
          <internalNodes>
            0 -1 67 -3.7036249414086342e-03</internalNodes>
          <leafValues>
            7.4608033895492554e-01 -1.6729526221752167e-01</leafValues></_></weakClassifiers></_>
    <!-- stage 19 -->
    <_>
      <maxWeakCount>15</maxWeakCount>
      <stageThreshold>-1.3210994005203247e+00</stageThreshold>
      <weakClassifiers>
        <_>
          <internalNodes>
            0 -1 129 -1.3617832337331492e-05</internalNodes>
          <leafValues>
            5.1774340867996216e-01 -3.3732533454895020e-01</leafValues></_>
        <_>
          <internalNodes>
            0 -1 37 1.4838673174381256e-02</internalNodes>
          <leafValues>
            -2.0301908254623413e-01 6.6587632894515991e-01</leafValues></_>
        <_>
          <internalNodes>
            0 -1 192 6.4822107553482056e-02</internalNodes>
          <leafValues>
            2.1182328462600708e-01 -7.2978585958480835e-01</leafValues></_>
        <_>
          <internalNodes>
            0 -1 123 -8.6049418896436691e-03</internalNodes>
          <leafValues>
            8.4726613759994507e-01 -1.8881869316101074e-01</leafValues></_>
        <_>
          <internalNodes>
            0 -1 13 6.6466979682445526e-02</internalNodes>
          <leafValues>
            2.1113355457782745e-01 -7.9731315374374390e-01</leafValues></_>
        <_>
          <internalNodes>
            0 -1 153 -1.9258327782154083e-02</internalNodes>
          <leafValues>
            8.2738947868347168e-01 -2.3177087306976318e-01</leafValues></_>
        <_>
          <internalNodes>
            0 -1 205 1.3008503010496497e-03</internalNodes>
          <leafValues>
            2.9848349094390869e-01 -5.8364772796630859e-01</leafValues></_>
        <_>
          <internalNodes>
            0 -1 28 -2.4797067046165466e-02</internalNodes>
          <leafValues>
            7.6669245958328247e-01 -2.5265243649482727e-01</leafValues></_>
        <_>
          <internalNodes>
            0 -1 104 -1.0289171710610390e-02</internalNodes>
          <leafValues>
            6.2701964378356934e-01 -2.1396930515766144e-01</leafValues></_>
        <_>
          <internalNodes>
            0 -1 164 -4.8240495380014181e-04</internalNodes>
          <leafValues>
            -9.3360686302185059e-01 1.5395191311836243e-01</leafValues></_>
        <_>
          <internalNodes>
            0 -1 159 -6.4552398398518562e-03</internalNodes>
          <leafValues>
            8.5596948862075806e-01 -1.9032016396522522e-01</leafValues></_>
        <_>
          <internalNodes>
            0 -1 21 8.1526741385459900e-02</internalNodes>
          <leafValues>
            1.7526943981647491e-01 -9.3392318487167358e-01</leafValues></_>
        <_>
          <internalNodes>
            0 -1 191 1.7766152741387486e-03</internalNodes>
          <leafValues>
            1.9204604625701904e-01 -6.9520592689514160e-01</leafValues></_>
        <_>
          <internalNodes>
            0 -1 11 -1.4618052169680595e-02</internalNodes>
          <leafValues>
            6.5453821420669556e-01 -2.5435227155685425e-01</leafValues></_>
        <_>
          <internalNodes>
            0 -1 71 -1.9070050911977887e-03</internalNodes>
          <leafValues>
            -9.3248063325881958e-01 1.9055226445198059e-01</leafValues></_></weakClassifiers></_></stages>
  <features>
    <_>
      <rects>
        <_>
          0 0 4 1 -1.</_>
        <_>
          2 0 2 1 2.</_></rects>
      <tilted>0</tilted></_>
    <_>
      <rects>
        <_>
          0 0 10 1 -1.</_>
        <_>
          5 0 5 1 2.</_></rects>
      <tilted>0</tilted></_>
    <_>
      <rects>
        <_>
          0 6 20 18 -1.</_>
        <_>
          0 6 10 9 2.</_>
        <_>
          10 15 10 9 2.</_></rects>
      <tilted>0</tilted></_>
    <_>
      <rects>
        <_>
          0 10 8 14 -1.</_>
        <_>
          0 10 4 7 2.</_>
        <_>
          4 17 4 7 2.</_></rects>
      <tilted>0</tilted></_>
    <_>
      <rects>
        <_>
          0 14 6 10 -1.</_>
        <_>
          0 19 6 5 2.</_></rects>
      <tilted>0</tilted></_>
    <_>
      <rects>
        <_>
          0 19 8 2 -1.</_>
        <_>
          4 19 4 2 2.</_></rects>
      <tilted>0</tilted></_>
    <_>
      <rects>
        <_>
          0 19 12 5 -1.</_>
        <_>
          6 19 6 5 2.</_></rects>
      <tilted>0</tilted></_>
    <_>
      <rects>
        <_>
          1 6 22 12 -1.</_>
        <_>
          1 12 22 6 2.</_></rects>
      <tilted>0</tilted></_>
    <_>
      <rects>
        <_>
          1 10 16 4 -1.</_>
        <_>
          9 10 8 4 2.</_></rects>
      <tilted>0</tilted></_>
    <_>
      <rects>
        <_>
          1 10 20 5 -1.</_>
        <_>
          11 10 10 5 2.</_></rects>
      <tilted>0</tilted></_>
    <_>
      <rects>
        <_>
          1 13 18 2 -1.</_>
        <_>
          10 13 9 2 2.</_></rects>
      <tilted>0</tilted></_>
    <_>
      <rects>
        <_>
          2 1 20 4 -1.</_>
        <_>
          2 1 10 2 2.</_>
        <_>
          12 3 10 2 2.</_></rects>
      <tilted>0</tilted></_>
    <_>
      <rects>
        <_>
          2 4 22 13 -1.</_>
        <_>
          13 4 11 13 2.</_></rects>
      <tilted>0</tilted></_>
    <_>
      <rects>
        <_>
          2 6 12 10 -1.</_>
        <_>
          2 11 12 5 2.</_></rects>
      <tilted>0</tilted></_>
    <_>
      <rects>
        <_>
          2 7 16 10 -1.</_>
        <_>
          2 12 16 5 2.</_></rects>
      <tilted>0</tilted></_>
    <_>
      <rects>
        <_>
          2 10 20 5 -1.</_>
        <_>
          12 10 10 5 2.</_></rects>
      <tilted>0</tilted></_>
    <_>
      <rects>
        <_>
          2 11 6 2 -1.</_>
        <_>
          4 11 2 2 3.</_></rects>
      <tilted>0</tilted></_>
    <_>
      <rects>
        <_>
          2 11 7 6 -1.</_>
        <_>
          2 14 7 3 2.</_></rects>
      <tilted>0</tilted></_>
    <_>
      <rects>
        <_>
          2 13 20 11 -1.</_>
        <_>
          12 13 10 11 2.</_></rects>
      <tilted>0</tilted></_>
    <_>
      <rects>
        <_>
          2 20 1 2 -1.</_>
        <_>
          2 20 1 1 2.</_></rects>
      <tilted>1</tilted></_>
    <_>
      <rects>
        <_>
          3 5 7 15 -1.</_>
        <_>
          3 10 7 5 3.</_></rects>
      <tilted>0</tilted></_>
    <_>
      <rects>
        <_>
          3 5 9 12 -1.</_>
        <_>
          3 9 9 4 3.</_></rects>
      <tilted>0</tilted></_>
    <_>
      <rects>
        <_>
          3 6 8 12 -1.</_>
        <_>
          3 10 8 4 3.</_></rects>
      <tilted>0</tilted></_>
    <_>
      <rects>
        <_>
          3 7 6 9 -1.</_>
        <_>
          5 10 2 3 9.</_></rects>
      <tilted>0</tilted></_>
    <_>
      <rects>
        <_>
          3 9 6 3 -1.</_>
        <_>
          5 9 2 3 3.</_></rects>
      <tilted>0</tilted></_>
    <_>
      <rects>
        <_>
          3 11 6 3 -1.</_>
        <_>
          5 11 2 3 3.</_></rects>
      <tilted>0</tilted></_>
    <_>
      <rects>
        <_>
          3 11 20 7 -1.</_>
        <_>
          13 11 10 7 2.</_></rects>
      <tilted>0</tilted></_>
    <_>
      <rects>
        <_>
          3 14 6 2 -1.</_>
        <_>
          5 14 2 2 3.</_></rects>
      <tilted>0</tilted></_>
    <_>
      <rects>
        <_>
          4 7 6 4 -1.</_>
        <_>
          6 7 2 4 3.</_></rects>
      <tilted>0</tilted></_>
    <_>
      <rects>
        <_>
          4 8 6 5 -1.</_>
        <_>
          6 8 2 5 3.</_></rects>
      <tilted>0</tilted></_>
    <_>
      <rects>
        <_>
          4 9 18 8 -1.</_>
        <_>
          13 9 9 8 2.</_></rects>
      <tilted>0</tilted></_>
    <_>
      <rects>
        <_>
          4 10 3 4 -1.</_>
        <_>
          5 10 1 4 3.</_></rects>
      <tilted>0</tilted></_>
    <_>
      <rects>
        <_>
          4 10 10 4 -1.</_>
        <_>
          9 10 5 4 2.</_></rects>
      <tilted>0</tilted></_>
    <_>
      <rects>
        <_>
          4 11 6 5 -1.</_>
        <_>
          6 11 2 5 3.</_></rects>
      <tilted>0</tilted></_>
    <_>
      <rects>
        <_>
          4 12 16 4 -1.</_>
        <_>
          12 12 8 4 2.</_></rects>
      <tilted>0</tilted></_>
    <_>
      <rects>
        <_>
          5 5 4 12 -1.</_>
        <_>
          5 5 2 6 2.</_>
        <_>
          7 11 2 6 2.</_></rects>
      <tilted>0</tilted></_>
    <_>
      <rects>
        <_>
          5 6 12 12 -1.</_>
        <_>
          9 10 4 4 9.</_></rects>
      <tilted>0</tilted></_>
    <_>
      <rects>
        <_>
          5 7 6 5 -1.</_>
        <_>
          7 7 2 5 3.</_></rects>
      <tilted>0</tilted></_>
    <_>
      <rects>
        <_>
          5 7 15 9 -1.</_>
        <_>
          10 10 5 3 9.</_></rects>
      <tilted>0</tilted></_>
    <_>
      <rects>
        <_>
          5 8 12 6 -1.</_>
        <_>
          9 10 4 2 9.</_></rects>
      <tilted>0</tilted></_>
    <_>
      <rects>
        <_>
          5 8 12 9 -1.</_>
        <_>
          9 11 4 3 9.</_></rects>
      <tilted>0</tilted></_>
    <_>
      <rects>
        <_>
          5 9 6 5 -1.</_>
        <_>
          7 9 2 5 3.</_></rects>
      <tilted>0</tilted></_>
    <_>
      <rects>
        <_>
          5 10 12 3 -1.</_>
        <_>
          9 11 4 1 9.</_></rects>
      <tilted>0</tilted></_>
    <_>
      <rects>
        <_>
          5 11 3 1 -1.</_>
        <_>
          6 11 1 1 3.</_></rects>
      <tilted>0</tilted></_>
    <_>
      <rects>
        <_>
          5 11 6 2 -1.</_>
        <_>
          7 11 2 2 3.</_></rects>
      <tilted>0</tilted></_>
    <_>
      <rects>
        <_>
          5 11 12 4 -1.</_>
        <_>
          9 11 4 4 3.</_></rects>
      <tilted>0</tilted></_>
    <_>
      <rects>
        <_>
          5 12 3 1 -1.</_>
        <_>
          6 12 1 1 3.</_></rects>
      <tilted>0</tilted></_>
    <_>
      <rects>
        <_>
          5 12 4 3 -1.</_>
        <_>
          7 12 2 3 2.</_></rects>
      <tilted>0</tilted></_>
    <_>
      <rects>
        <_>
          5 13 3 1 -1.</_>
        <_>
          6 13 1 1 3.</_></rects>
      <tilted>0</tilted></_>
    <_>
      <rects>
        <_>
          5 14 3 1 -1.</_>
        <_>
          6 14 1 1 3.</_></rects>
      <tilted>0</tilted></_>
    <_>
      <rects>
        <_>
          6 4 12 15 -1.</_>
        <_>
          10 9 4 5 9.</_></rects>
      <tilted>0</tilted></_>
    <_>
      <rects>
        <_>
          6 6 6 10 -1.</_>
        <_>
          8 6 2 10 3.</_></rects>
      <tilted>0</tilted></_>
    <_>
      <rects>
        <_>
          6 9 2 10 -1.</_>
        <_>
          6 9 1 5 2.</_>
        <_>
          7 14 1 5 2.</_></rects>
      <tilted>0</tilted></_>
    <_>
      <rects>
        <_>
          6 9 2 12 -1.</_>
        <_>
          6 9 1 6 2.</_>
        <_>
          7 15 1 6 2.</_></rects>
      <tilted>0</tilted></_>
    <_>
      <rects>
        <_>
          6 11 18 1 -1.</_>
        <_>
          15 11 9 1 2.</_></rects>
      <tilted>0</tilted></_>
    <_>
      <rects>
        <_>
          6 12 3 1 -1.</_>
        <_>
          7 12 1 1 3.</_></rects>
      <tilted>0</tilted></_>
    <_>
      <rects>
        <_>
          7 3 16 10 -1.</_>
        <_>
          7 3 8 5 2.</_>
        <_>
          15 8 8 5 2.</_></rects>
      <tilted>0</tilted></_>
    <_>
      <rects>
        <_>
          7 6 3 12 -1.</_>
        <_>
          8 10 1 4 9.</_></rects>
      <tilted>0</tilted></_>
    <_>
      <rects>
        <_>
          7 6 6 4 -1.</_>
        <_>
          9 6 2 4 3.</_></rects>
      <tilted>0</tilted></_>
    <_>
      <rects>
        <_>
          7 7 4 16 -1.</_>
        <_>
          7 7 2 8 2.</_>
        <_>
          9 15 2 8 2.</_></rects>
      <tilted>0</tilted></_>
    <_>
      <rects>
        <_>
          7 7 8 12 -1.</_>
        <_>
          7 13 8 6 2.</_></rects>
      <tilted>0</tilted></_>
    <_>
      <rects>
        <_>
          7 8 3 1 -1.</_>
        <_>
          8 8 1 1 3.</_></rects>
      <tilted>0</tilted></_>
    <_>
      <rects>
        <_>
          7 8 4 1 -1.</_>
        <_>
          8 8 2 1 2.</_></rects>
      <tilted>0</tilted></_>
    <_>
      <rects>
        <_>
          7 11 3 1 -1.</_>
        <_>
          8 11 1 1 3.</_></rects>
      <tilted>0</tilted></_>
    <_>
      <rects>
        <_>
          7 12 3 1 -1.</_>
        <_>
          8 12 1 1 3.</_></rects>
      <tilted>0</tilted></_>
    <_>
      <rects>
        <_>
          7 14 2 6 -1.</_>
        <_>
          5 16 2 2 3.</_></rects>
      <tilted>1</tilted></_>
    <_>
      <rects>
        <_>
          8 6 8 3 -1.</_>
        <_>
          10 6 4 3 2.</_></rects>
      <tilted>0</tilted></_>
    <_>
      <rects>
        <_>
          8 7 3 1 -1.</_>
        <_>
          9 7 1 1 3.</_></rects>
      <tilted>0</tilted></_>
    <_>
      <rects>
        <_>
          8 8 3 1 -1.</_>
        <_>
          9 8 1 1 3.</_></rects>
      <tilted>0</tilted></_>
    <_>
      <rects>
        <_>
          8 8 6 16 -1.</_>
        <_>
          8 16 6 8 2.</_></rects>
      <tilted>0</tilted></_>
    <_>
      <rects>
        <_>
          8 9 7 8 -1.</_>
        <_>
          8 13 7 4 2.</_></rects>
      <tilted>0</tilted></_>
    <_>
      <rects>
        <_>
          8 11 6 2 -1.</_>
        <_>
          11 11 3 2 2.</_></rects>
      <tilted>0</tilted></_>
    <_>
      <rects>
        <_>
          8 11 10 4 -1.</_>
        <_>
          13 11 5 4 2.</_></rects>
      <tilted>0</tilted></_>
    <_>
      <rects>
        <_>
          9 2 14 7 -1.</_>
        <_>
          9 2 7 7 2.</_></rects>
      <tilted>1</tilted></_>
    <_>
      <rects>
        <_>
          9 2 8 22 -1.</_>
        <_>
          9 13 8 11 2.</_></rects>
      <tilted>0</tilted></_>
    <_>
      <rects>
        <_>
          9 6 3 1 -1.</_>
        <_>
          10 6 1 1 3.</_></rects>
      <tilted>0</tilted></_>
    <_>
      <rects>
        <_>
          9 7 3 1 -1.</_>
        <_>
          10 7 1 1 3.</_></rects>
      <tilted>0</tilted></_>
    <_>
      <rects>
        <_>
          9 8 6 3 -1.</_>
        <_>
          11 9 2 1 9.</_></rects>
      <tilted>0</tilted></_>
    <_>
      <rects>
        <_>
          9 10 6 3 -1.</_>
        <_>
          11 11 2 1 9.</_></rects>
      <tilted>0</tilted></_>
    <_>
      <rects>
        <_>
          9 10 4 4 -1.</_>
        <_>
          11 10 2 4 2.</_></rects>
      <tilted>0</tilted></_>
    <_>
      <rects>
        <_>
          9 10 4 4 -1.</_>
        <_>
          9 11 4 2 2.</_></rects>
      <tilted>0</tilted></_>
    <_>
      <rects>
        <_>
          9 11 6 2 -1.</_>
        <_>
          11 11 2 2 3.</_></rects>
      <tilted>0</tilted></_>
    <_>
      <rects>
        <_>
          9 11 6 1 -1.</_>
        <_>
          12 11 3 1 2.</_></rects>
      <tilted>0</tilted></_>
    <_>
      <rects>
        <_>
          9 11 8 5 -1.</_>
        <_>
          13 11 4 5 2.</_></rects>
      <tilted>0</tilted></_>
    <_>
      <rects>
        <_>
          9 12 4 2 -1.</_>
        <_>
          9 13 4 1 2.</_></rects>
      <tilted>0</tilted></_>
    <_>
      <rects>
        <_>
          10 2 5 18 -1.</_>
        <_>
          10 8 5 6 3.</_></rects>
      <tilted>0</tilted></_>
    <_>
      <rects>
        <_>
          10 2 12 7 -1.</_>
        <_>
          10 2 6 7 2.</_></rects>
      <tilted>1</tilted></_>
    <_>
      <rects>
        <_>
          10 3 3 6 -1.</_>
        <_>
          11 5 1 2 9.</_></rects>
      <tilted>0</tilted></_>
    <_>
      <rects>
        <_>
          10 3 5 15 -1.</_>
        <_>
          10 8 5 5 3.</_></rects>
      <tilted>0</tilted></_>
    <_>
      <rects>
        <_>
          10 3 12 8 -1.</_>
        <_>
          10 3 6 8 2.</_></rects>
      <tilted>1</tilted></_>
    <_>
      <rects>
        <_>
          10 4 10 9 -1.</_>
        <_>
          15 4 5 9 2.</_></rects>
      <tilted>0</tilted></_>
    <_>
      <rects>
        <_>
          10 4 10 10 -1.</_>
        <_>
          10 9 10 5 2.</_></rects>
      <tilted>0</tilted></_>
    <_>
      <rects>
        <_>
          10 9 3 4 -1.</_>
        <_>
          10 11 3 2 2.</_></rects>
      <tilted>0</tilted></_>
    <_>
      <rects>
        <_>
          10 10 2 1 -1.</_>
        <_>
          10 10 1 1 2.</_></rects>
      <tilted>1</tilted></_>
    <_>
      <rects>
        <_>
          10 10 2 3 -1.</_>
        <_>
          11 10 1 3 2.</_></rects>
      <tilted>0</tilted></_>
    <_>
      <rects>
        <_>
          10 10 2 2 -1.</_>
        <_>
          10 11 2 1 2.</_></rects>
      <tilted>0</tilted></_>
    <_>
      <rects>
        <_>
          10 10 6 6 -1.</_>
        <_>
          10 10 3 3 2.</_>
        <_>
          13 13 3 3 2.</_></rects>
      <tilted>0</tilted></_>
    <_>
      <rects>
        <_>
          10 11 3 3 -1.</_>
        <_>
          11 12 1 1 9.</_></rects>
      <tilted>0</tilted></_>
    <_>
      <rects>
        <_>
          10 12 3 1 -1.</_>
        <_>
          11 12 1 1 3.</_></rects>
      <tilted>0</tilted></_>
    <_>
      <rects>
        <_>
          10 12 4 1 -1.</_>
        <_>
          11 12 2 1 2.</_></rects>
      <tilted>0</tilted></_>
    <_>
      <rects>
        <_>
          10 12 2 2 -1.</_>
        <_>
          10 13 2 1 2.</_></rects>
      <tilted>0</tilted></_>
    <_>
      <rects>
        <_>
          10 12 4 2 -1.</_>
        <_>
          10 12 2 1 2.</_>
        <_>
          12 13 2 1 2.</_></rects>
      <tilted>0</tilted></_>
    <_>
      <rects>
        <_>
          10 12 4 2 -1.</_>
        <_>
          12 12 2 2 2.</_></rects>
      <tilted>0</tilted></_>
    <_>
      <rects>
        <_>
          10 13 4 1 -1.</_>
        <_>
          12 13 2 1 2.</_></rects>
      <tilted>0</tilted></_>
    <_>
      <rects>
        <_>
          11 5 6 6 -1.</_>
        <_>
          11 5 3 3 2.</_>
        <_>
          14 8 3 3 2.</_></rects>
      <tilted>0</tilted></_>
    <_>
      <rects>
        <_>
          11 6 3 1 -1.</_>
        <_>
          12 6 1 1 3.</_></rects>
      <tilted>0</tilted></_>
    <_>
      <rects>
        <_>
          11 6 8 4 -1.</_>
        <_>
          11 6 4 4 2.</_></rects>
      <tilted>1</tilted></_>
    <_>
      <rects>
        <_>
          11 7 10 12 -1.</_>
        <_>
          11 7 5 6 2.</_>
        <_>
          16 13 5 6 2.</_></rects>
      <tilted>0</tilted></_>
    <_>
      <rects>
        <_>
          11 8 3 6 -1.</_>
        <_>
          12 10 1 2 9.</_></rects>
      <tilted>0</tilted></_>
    <_>
      <rects>
        <_>
          11 9 3 2 -1.</_>
        <_>
          12 10 1 2 3.</_></rects>
      <tilted>1</tilted></_>
    <_>
      <rects>
        <_>
          11 9 6 1 -1.</_>
        <_>
          11 9 3 1 2.</_></rects>
      <tilted>1</tilted></_>
    <_>
      <rects>
        <_>
          11 10 1 3 -1.</_>
        <_>
          11 11 1 1 3.</_></rects>
      <tilted>0</tilted></_>
    <_>
      <rects>
        <_>
          11 10 2 1 -1.</_>
        <_>
          11 10 1 1 2.</_></rects>
      <tilted>1</tilted></_>
    <_>
      <rects>
        <_>
          11 10 1 4 -1.</_>
        <_>
          11 12 1 2 2.</_></rects>
      <tilted>0</tilted></_>
    <_>
      <rects>
        <_>
          11 10 2 2 -1.</_>
        <_>
          11 10 1 2 2.</_></rects>
      <tilted>1</tilted></_>
    <_>
      <rects>
        <_>
          11 11 1 2 -1.</_>
        <_>
          11 12 1 1 2.</_></rects>
      <tilted>0</tilted></_>
    <_>
      <rects>
        <_>
          11 11 2 2 -1.</_>
        <_>
          12 11 1 2 2.</_></rects>
      <tilted>0</tilted></_>
    <_>
      <rects>
        <_>
          11 11 4 2 -1.</_>
        <_>
          11 11 2 1 2.</_>
        <_>
          13 12 2 1 2.</_></rects>
      <tilted>0</tilted></_>
    <_>
      <rects>
        <_>
          11 11 4 2 -1.</_>
        <_>
          13 11 2 2 2.</_></rects>
      <tilted>0</tilted></_>
    <_>
      <rects>
        <_>
          11 12 4 1 -1.</_>
        <_>
          12 12 2 1 2.</_></rects>
      <tilted>0</tilted></_>
    <_>
      <rects>
        <_>
          11 12 4 1 -1.</_>
        <_>
          13 12 2 1 2.</_></rects>
      <tilted>0</tilted></_>
    <_>
      <rects>
        <_>
          11 15 8 2 -1.</_>
        <_>
          15 15 4 2 2.</_></rects>
      <tilted>0</tilted></_>
    <_>
      <rects>
        <_>
          11 17 4 6 -1.</_>
        <_>
          11 19 4 2 3.</_></rects>
      <tilted>0</tilted></_>
    <_>
      <rects>
        <_>
          12 4 7 3 -1.</_>
        <_>
          12 5 7 1 3.</_></rects>
      <tilted>0</tilted></_>
    <_>
      <rects>
        <_>
          12 5 6 3 -1.</_>
        <_>
          14 7 2 3 3.</_></rects>
      <tilted>1</tilted></_>
    <_>
      <rects>
        <_>
          12 7 4 8 -1.</_>
        <_>
          12 7 4 4 2.</_></rects>
      <tilted>1</tilted></_>
    <_>
      <rects>
        <_>
          12 8 3 9 -1.</_>
        <_>
          13 11 1 3 9.</_></rects>
      <tilted>0</tilted></_>
    <_>
      <rects>
        <_>
          12 10 1 2 -1.</_>
        <_>
          12 10 1 1 2.</_></rects>
      <tilted>1</tilted></_>
    <_>
      <rects>
        <_>
          12 11 2 2 -1.</_>
        <_>
          13 11 1 2 2.</_></rects>
      <tilted>0</tilted></_>
    <_>
      <rects>
        <_>
          12 11 4 4 -1.</_>
        <_>
          12 11 2 2 2.</_>
        <_>
          14 13 2 2 2.</_></rects>
      <tilted>0</tilted></_>
    <_>
      <rects>
        <_>
          12 11 6 2 -1.</_>
        <_>
          14 13 2 2 3.</_></rects>
      <tilted>1</tilted></_>
    <_>
      <rects>
        <_>
          12 12 3 1 -1.</_>
        <_>
          13 12 1 1 3.</_></rects>
      <tilted>0</tilted></_>
    <_>
      <rects>
        <_>
          12 12 1 2 -1.</_>
        <_>
          12 12 1 1 2.</_></rects>
      <tilted>1</tilted></_>
    <_>
      <rects>
        <_>
          12 13 9 1 -1.</_>
        <_>
          15 13 3 1 3.</_></rects>
      <tilted>0</tilted></_>
    <_>
      <rects>
        <_>
          12 14 3 2 -1.</_>
        <_>
          13 15 1 2 3.</_></rects>
      <tilted>1</tilted></_>
    <_>
      <rects>
        <_>
          13 4 3 4 -1.</_>
        <_>
          14 5 1 4 3.</_></rects>
      <tilted>1</tilted></_>
    <_>
      <rects>
        <_>
          13 4 6 4 -1.</_>
        <_>
          15 6 2 4 3.</_></rects>
      <tilted>1</tilted></_>
    <_>
      <rects>
        <_>
          13 5 3 3 -1.</_>
        <_>
          14 6 1 3 3.</_></rects>
      <tilted>1</tilted></_>
    <_>
      <rects>
        <_>
          13 7 6 3 -1.</_>
        <_>
          15 8 2 1 9.</_></rects>
      <tilted>0</tilted></_>
    <_>
      <rects>
        <_>
          13 8 6 3 -1.</_>
        <_>
          15 10 2 3 3.</_></rects>
      <tilted>1</tilted></_>
    <_>
      <rects>
        <_>
          13 8 6 4 -1.</_>
        <_>
          15 10 2 4 3.</_></rects>
      <tilted>1</tilted></_>
    <_>
      <rects>
        <_>
          13 10 1 4 -1.</_>
        <_>
          13 11 1 2 2.</_></rects>
      <tilted>0</tilted></_>
    <_>
      <rects>
        <_>
          13 10 1 4 -1.</_>
        <_>
          13 12 1 2 2.</_></rects>
      <tilted>0</tilted></_>
    <_>
      <rects>
        <_>
          13 10 2 2 -1.</_>
        <_>
          13 10 1 2 2.</_></rects>
      <tilted>1</tilted></_>
    <_>
      <rects>
        <_>
          13 10 4 2 -1.</_>
        <_>
          14 11 2 2 2.</_></rects>
      <tilted>1</tilted></_>
    <_>
      <rects>
        <_>
          13 10 4 3 -1.</_>
        <_>
          14 11 2 3 2.</_></rects>
      <tilted>1</tilted></_>
    <_>
      <rects>
        <_>
          13 10 2 4 -1.</_>
        <_>
          13 10 1 4 2.</_></rects>
      <tilted>1</tilted></_>
    <_>
      <rects>
        <_>
          13 11 2 1 -1.</_>
        <_>
          13 11 1 1 2.</_></rects>
      <tilted>1</tilted></_>
    <_>
      <rects>
        <_>
          13 11 9 2 -1.</_>
        <_>
          16 11 3 2 3.</_></rects>
      <tilted>0</tilted></_>
    <_>
      <rects>
        <_>
          13 11 10 6 -1.</_>
        <_>
          13 11 5 3 2.</_>
        <_>
          18 14 5 3 2.</_></rects>
      <tilted>0</tilted></_>
    <_>
      <rects>
        <_>
          13 12 1 2 -1.</_>
        <_>
          13 13 1 1 2.</_></rects>
      <tilted>0</tilted></_>
    <_>
      <rects>
        <_>
          13 12 9 1 -1.</_>
        <_>
          16 12 3 1 3.</_></rects>
      <tilted>0</tilted></_>
    <_>
      <rects>
        <_>
          13 13 3 1 -1.</_>
        <_>
          14 14 1 1 3.</_></rects>
      <tilted>1</tilted></_>
    <_>
      <rects>
        <_>
          13 13 3 4 -1.</_>
        <_>
          14 14 1 4 3.</_></rects>
      <tilted>1</tilted></_>
    <_>
      <rects>
        <_>
          13 13 5 9 -1.</_>
        <_>
          13 16 5 3 3.</_></rects>
      <tilted>0</tilted></_>
    <_>
      <rects>
        <_>
          13 14 2 1 -1.</_>
        <_>
          13 14 1 1 2.</_></rects>
      <tilted>1</tilted></_>
    <_>
      <rects>
        <_>
          14 3 4 4 -1.</_>
        <_>
          15 4 2 4 2.</_></rects>
      <tilted>1</tilted></_>
    <_>
      <rects>
        <_>
          14 4 3 7 -1.</_>
        <_>
          15 5 1 7 3.</_></rects>
      <tilted>1</tilted></_>
    <_>
      <rects>
        <_>
          14 5 3 7 -1.</_>
        <_>
          15 6 1 7 3.</_></rects>
      <tilted>1</tilted></_>
    <_>
      <rects>
        <_>
          14 5 4 3 -1.</_>
        <_>
          14 6 4 1 3.</_></rects>
      <tilted>0</tilted></_>
    <_>
      <rects>
        <_>
          14 9 1 4 -1.</_>
        <_>
          14 9 1 2 2.</_></rects>
      <tilted>1</tilted></_>
    <_>
      <rects>
        <_>
          14 9 3 10 -1.</_>
        <_>
          14 9 3 5 2.</_></rects>
      <tilted>1</tilted></_>
    <_>
      <rects>
        <_>
          14 10 2 2 -1.</_>
        <_>
          14 10 1 2 2.</_></rects>
      <tilted>1</tilted></_>
    <_>
      <rects>
        <_>
          14 11 1 2 -1.</_>
        <_>
          14 11 1 1 2.</_></rects>
      <tilted>1</tilted></_>
    <_>
      <rects>
        <_>
          14 11 1 3 -1.</_>
        <_>
          13 12 1 1 3.</_></rects>
      <tilted>1</tilted></_>
    <_>
      <rects>
        <_>
          14 11 3 3 -1.</_>
        <_>
          15 12 1 3 3.</_></rects>
      <tilted>1</tilted></_>
    <_>
      <rects>
        <_>
          14 12 3 3 -1.</_>
        <_>
          15 13 1 1 9.</_></rects>
      <tilted>0</tilted></_>
    <_>
      <rects>
        <_>
          14 13 3 1 -1.</_>
        <_>
          15 14 1 1 3.</_></rects>
      <tilted>1</tilted></_>
    <_>
      <rects>
        <_>
          14 14 2 2 -1.</_>
        <_>
          14 14 1 2 2.</_></rects>
      <tilted>1</tilted></_>
    <_>
      <rects>
        <_>
          15 4 6 5 -1.</_>
        <_>
          17 6 2 5 3.</_></rects>
      <tilted>1</tilted></_>
    <_>
      <rects>
        <_>
          15 4 4 3 -1.</_>
        <_>
          15 5 4 1 3.</_></rects>
      <tilted>0</tilted></_>
    <_>
      <rects>
        <_>
          15 6 6 11 -1.</_>
        <_>
          15 6 3 11 2.</_></rects>
      <tilted>1</tilted></_>
    <_>
      <rects>
        <_>
          15 7 6 5 -1.</_>
        <_>
          17 7 2 5 3.</_></rects>
      <tilted>0</tilted></_>
    <_>
      <rects>
        <_>
          15 8 6 4 -1.</_>
        <_>
          17 8 2 4 3.</_></rects>
      <tilted>0</tilted></_>
    <_>
      <rects>
        <_>
          15 10 1 4 -1.</_>
        <_>
          15 10 1 2 2.</_></rects>
      <tilted>1</tilted></_>
    <_>
      <rects>
        <_>
          15 10 4 3 -1.</_>
        <_>
          15 10 2 3 2.</_></rects>
      <tilted>1</tilted></_>
    <_>
      <rects>
        <_>
          15 10 6 4 -1.</_>
        <_>
          17 12 2 4 3.</_></rects>
      <tilted>1</tilted></_>
    <_>
      <rects>
        <_>
          15 11 1 2 -1.</_>
        <_>
          15 11 1 1 2.</_></rects>
      <tilted>1</tilted></_>
    <_>
      <rects>
        <_>
          15 11 4 4 -1.</_>
        <_>
          15 11 2 2 2.</_>
        <_>
          17 13 2 2 2.</_></rects>
      <tilted>0</tilted></_>
    <_>
      <rects>
        <_>
          15 12 3 1 -1.</_>
        <_>
          16 13 1 1 3.</_></rects>
      <tilted>1</tilted></_>
    <_>
      <rects>
        <_>
          15 12 2 2 -1.</_>
        <_>
          15 12 1 2 2.</_></rects>
      <tilted>1</tilted></_>
    <_>
      <rects>
        <_>
          15 12 3 3 -1.</_>
        <_>
          16 13 1 3 3.</_></rects>
      <tilted>1</tilted></_>
    <_>
      <rects>
        <_>
          15 13 2 2 -1.</_>
        <_>
          15 13 1 2 2.</_></rects>
      <tilted>1</tilted></_>
    <_>
      <rects>
        <_>
          16 0 8 1 -1.</_>
        <_>
          20 0 4 1 2.</_></rects>
      <tilted>0</tilted></_>
    <_>
      <rects>
        <_>
          16 5 4 4 -1.</_>
        <_>
          17 6 2 4 2.</_></rects>
      <tilted>1</tilted></_>
    <_>
      <rects>
        <_>
          16 9 1 6 -1.</_>
        <_>
          14 11 1 2 3.</_></rects>
      <tilted>1</tilted></_>
    <_>
      <rects>
        <_>
          16 10 3 2 -1.</_>
        <_>
          17 11 1 2 3.</_></rects>
      <tilted>1</tilted></_>
    <_>
      <rects>
        <_>
          16 11 1 3 -1.</_>
        <_>
          16 12 1 1 3.</_></rects>
      <tilted>0</tilted></_>
    <_>
      <rects>
        <_>
          16 11 2 3 -1.</_>
        <_>
          16 11 1 3 2.</_></rects>
      <tilted>1</tilted></_>
    <_>
      <rects>
        <_>
          16 11 3 3 -1.</_>
        <_>
          17 12 1 3 3.</_></rects>
      <tilted>1</tilted></_>
    <_>
      <rects>
        <_>
          16 12 3 1 -1.</_>
        <_>
          17 13 1 1 3.</_></rects>
      <tilted>1</tilted></_>
    <_>
      <rects>
        <_>
          17 0 4 1 -1.</_>
        <_>
          18 0 2 1 2.</_></rects>
      <tilted>0</tilted></_>
    <_>
      <rects>
        <_>
          17 0 5 21 -1.</_>
        <_>
          17 7 5 7 3.</_></rects>
      <tilted>0</tilted></_>
    <_>
      <rects>
        <_>
          17 4 7 12 -1.</_>
        <_>
          17 4 7 6 2.</_></rects>
      <tilted>1</tilted></_>
    <_>
      <rects>
        <_>
          17 5 6 8 -1.</_>
        <_>
          19 5 2 8 3.</_></rects>
      <tilted>0</tilted></_>
    <_>
      <rects>
        <_>
          17 5 4 10 -1.</_>
        <_>
          17 5 4 5 2.</_></rects>
      <tilted>1</tilted></_>
    <_>
      <rects>
        <_>
          17 7 5 8 -1.</_>
        <_>
          17 11 5 4 2.</_></rects>
      <tilted>0</tilted></_>
    <_>
      <rects>
        <_>
          17 8 2 6 -1.</_>
        <_>
          17 8 1 3 2.</_>
        <_>
          18 11 1 3 2.</_></rects>
      <tilted>0</tilted></_>
    <_>
      <rects>
        <_>
          17 9 4 2 -1.</_>
        <_>
          18 10 2 2 2.</_></rects>
      <tilted>1</tilted></_>
    <_>
      <rects>
        <_>
          17 9 3 3 -1.</_>
        <_>
          18 10 1 3 3.</_></rects>
      <tilted>1</tilted></_>
    <_>
      <rects>
        <_>
          17 9 4 3 -1.</_>
        <_>
          18 10 2 3 2.</_></rects>
      <tilted>1</tilted></_>
    <_>
      <rects>
        <_>
          17 10 3 1 -1.</_>
        <_>
          18 10 1 1 3.</_></rects>
      <tilted>0</tilted></_>
    <_>
      <rects>
        <_>
          18 0 6 24 -1.</_>
        <_>
          18 12 6 12 2.</_></rects>
      <tilted>0</tilted></_>
    <_>
      <rects>
        <_>
          18 9 4 5 -1.</_>
        <_>
          19 10 2 5 2.</_></rects>
      <tilted>1</tilted></_>
    <_>
      <rects>
        <_>
          20 0 4 20 -1.</_>
        <_>
          20 0 4 10 2.</_></rects>
      <tilted>1</tilted></_>
    <_>
      <rects>
        <_>
          20 2 4 1 -1.</_>
        <_>
          22 2 2 1 2.</_></rects>
      <tilted>0</tilted></_>
    <_>
      <rects>
        <_>
          20 20 4 3 -1.</_>
        <_>
          22 20 2 3 2.</_></rects>
      <tilted>0</tilted></_>
    <_>
      <rects>
        <_>
          21 0 3 1 -1.</_>
        <_>
          22 0 1 1 3.</_></rects>
      <tilted>0</tilted></_>
    <_>
      <rects>
        <_>
          22 22 2 2 -1.</_>
        <_>
          23 22 1 2 2.</_></rects>
      <tilted>0</tilted></_></features></cascade>
</opencv_storage>
