<?xml version="1.0"?>
<opencv_storage>
<stage15>
  <maxWeakCount>10</maxWeakCount>
  <stageThreshold>-1.0318233966827393e+00</stageThreshold>
  <weakClassifiers>
    <_>
      <internalNodes>
        0 -1 1349529 1.0716521646827459e-03</internalNodes>
      <leafValues>
        -3.6713996529579163e-01 5.2484190464019775e-01</leafValues></_>
    <_>
      <internalNodes>
        0 -1 3141 -2.2710955142974854e-01</internalNodes>
      <leafValues>
        -8.2340353727340698e-01 2.3135669529438019e-01</leafValues></_>
    <_>
      <internalNodes>
        0 -1 808883 -2.8826517518609762e-04</internalNodes>
      <leafValues>
        -8.5250222682952881e-01 1.8085013329982758e-01</leafValues></_>
    <_>
      <internalNodes>
        0 -1 1030493 -6.6450901795178652e-04</internalNodes>
      <leafValues>
        -6.7500239610671997e-01 2.2082430124282837e-01</leafValues></_>
    <_>
      <internalNodes>
        0 -1 757106 -2.6648030616343021e-03</internalNodes>
      <leafValues>
        -5.8250176906585693e-01 2.8008121252059937e-01</leafValues></_>
    <_>
      <internalNodes>
        0 -1 677171 -7.8443449456244707e-04</internalNodes>
      <leafValues>
        2.4963057041168213e-01 -5.7174313068389893e-01</leafValues></_>
    <_>
      <internalNodes>
        0 -1 1746365 -6.5667170565575361e-04</internalNodes>
      <leafValues>
        1.4825099706649780e-01 -9.5406681299209595e-01</leafValues></_>
    <_>
      <internalNodes>
        0 -1 485163 -2.5991898775100708e-01</internalNodes>
      <leafValues>
        6.6486865282058716e-01 -2.7734589576721191e-01</leafValues></_>
    <_>
      <internalNodes>
        0 -1 1128003 2.2626377642154694e-02</internalNodes>
      <leafValues>
        -2.3116618394851685e-01 7.6640796661376953e-01</leafValues></_>
    <_>
      <internalNodes>
        0 -1 1513336 1.0024911898653954e-04</internalNodes>
      <leafValues>
        4.3190026283264160e-01 -4.6321183443069458e-01</leafValues></_></weakClassifiers></stage15>
</opencv_storage>
