<?xml version="1.0"?>
<opencv_storage>
<cascade>
  <stageType>BOOST</stageType>
  <featureType>HAAR</featureType>
  <height>40</height>
  <width>40</width>
  <stageParams>
    <boostType>GAB</boostType>
    <minHitRate>9.9900001287460327e-01</minHitRate>
    <maxFalseAlarm>5.0000000000000000e-01</maxFalseAlarm>
    <weightTrimRate>9.4999999999999996e-01</weightTrimRate>
    <maxDepth>1</maxDepth>
    <maxWeakCount>100</maxWeakCount></stageParams>
  <featureParams>
    <maxCatCount>0</maxCatCount>
    <featSize>1</featSize>
    <mode>ALL</mode></featureParams>
  <stageNum>20</stageNum>
  <stages>
    <!-- stage 0 -->
    <_>
      <maxWeakCount>3</maxWeakCount>
      <stageThreshold>-8.8436472415924072e-01</stageThreshold>
      <weakClassifiers>
        <_>
          <internalNodes>
            0 -1 160 -4.9543060362339020e-02</internalNodes>
          <leafValues>
            9.0978884696960449e-01 -9.8207885026931763e-01</leafValues></_>
        <_>
          <internalNodes>
            0 -1 53 -1.2553143501281738e-01</internalNodes>
          <leafValues>
            8.6764746904373169e-01 -7.6096343994140625e-01</leafValues></_>
        <_>
          <internalNodes>
            0 -1 109 6.6610544919967651e-02</internalNodes>
          <leafValues>
            -7.2696363925933838e-01 8.5867750644683838e-01</leafValues></_></weakClassifiers></_>
    <!-- stage 1 -->
    <_>
      <maxWeakCount>3</maxWeakCount>
      <stageThreshold>-7.8435337543487549e-01</stageThreshold>
      <weakClassifiers>
        <_>
          <internalNodes>
            0 -1 151 -7.0485010743141174e-02</internalNodes>
          <leafValues>
            8.4130215644836426e-01 -6.9205832481384277e-01</leafValues></_>
        <_>
          <internalNodes>
            0 -1 189 -1.8428437411785126e-02</internalNodes>
          <leafValues>
            6.6836422681808472e-01 -6.8149882555007935e-01</leafValues></_>
        <_>
          <internalNodes>
            0 -1 208 -3.4160591661930084e-02</internalNodes>
          <leafValues>
            5.8920383453369141e-01 -5.1649636030197144e-01</leafValues></_></weakClassifiers></_>
    <!-- stage 2 -->
    <_>
      <maxWeakCount>6</maxWeakCount>
      <stageThreshold>-1.1232509613037109e+00</stageThreshold>
      <weakClassifiers>
        <_>
          <internalNodes>
            0 -1 119 3.5961374640464783e-02</internalNodes>
          <leafValues>
            -5.9398496150970459e-01 8.5026735067367554e-01</leafValues></_>
        <_>
          <internalNodes>
            0 -1 197 -5.9879869222640991e-02</internalNodes>
          <leafValues>
            6.0593897104263306e-01 -7.5806623697280884e-01</leafValues></_>
        <_>
          <internalNodes>
            0 -1 69 4.3786182999610901e-02</internalNodes>
          <leafValues>
            -7.1712976694107056e-01 5.1279222965240479e-01</leafValues></_>
        <_>
          <internalNodes>
            0 -1 137 6.8453904241323471e-03</internalNodes>
          <leafValues>
            -2.5255590677261353e-01 9.0356719493865967e-01</leafValues></_>
        <_>
          <internalNodes>
            0 -1 3 1.1558750411495566e-03</internalNodes>
          <leafValues>
            -4.5874190330505371e-01 5.8288758993148804e-01</leafValues></_>
        <_>
          <internalNodes>
            0 -1 196 -6.4149387180805206e-02</internalNodes>
          <leafValues>
            5.0110471248626709e-01 -5.3778076171875000e-01</leafValues></_></weakClassifiers></_>
    <!-- stage 3 -->
    <_>
      <maxWeakCount>7</maxWeakCount>
      <stageThreshold>-1.8480339050292969e+00</stageThreshold>
      <weakClassifiers>
        <_>
          <internalNodes>
            0 -1 91 6.5262451767921448e-02</internalNodes>
          <leafValues>
            -7.1093750000000000e-01 7.0220589637756348e-01</leafValues></_>
        <_>
          <internalNodes>
            0 -1 90 2.4955552071332932e-02</internalNodes>
          <leafValues>
            -7.4512022733688354e-01 4.1176351904869080e-01</leafValues></_>
        <_>
          <internalNodes>
            0 -1 162 -1.1017891764640808e-01</internalNodes>
          <leafValues>
            8.2157754898071289e-01 -4.4779500365257263e-01</leafValues></_>
        <_>
          <internalNodes>
            0 -1 248 -1.6751680959714577e-05</internalNodes>
          <leafValues>
            -8.0056983232498169e-01 3.3227130770683289e-01</leafValues></_>
        <_>
          <internalNodes>
            0 -1 164 -3.1259123235940933e-02</internalNodes>
          <leafValues>
            3.6966431140899658e-01 -6.1441153287887573e-01</leafValues></_>
        <_>
          <internalNodes>
            0 -1 170 -4.2052818462252617e-03</internalNodes>
          <leafValues>
            4.3946716189384460e-01 -5.4625451564788818e-01</leafValues></_>
        <_>
          <internalNodes>
            0 -1 139 -2.7579341083765030e-02</internalNodes>
          <leafValues>
            8.4818142652511597e-01 -3.8181039690971375e-01</leafValues></_></weakClassifiers></_>
    <!-- stage 4 -->
    <_>
      <maxWeakCount>12</maxWeakCount>
      <stageThreshold>-1.4577007293701172e+00</stageThreshold>
      <weakClassifiers>
        <_>
          <internalNodes>
            0 -1 167 -5.6380990892648697e-02</internalNodes>
          <leafValues>
            7.7163463830947876e-01 -3.1510415673255920e-01</leafValues></_>
        <_>
          <internalNodes>
            0 -1 190 -1.5640959143638611e-02</internalNodes>
          <leafValues>
            4.3936914205551147e-01 -6.9671308994293213e-01</leafValues></_>
        <_>
          <internalNodes>
            0 -1 216 9.5387105830013752e-05</internalNodes>
          <leafValues>
            3.4187066555023193e-01 -6.7342621088027954e-01</leafValues></_>
        <_>
          <internalNodes>
            0 -1 123 -6.3258307054638863e-03</internalNodes>
          <leafValues>
            8.1618541479110718e-01 -2.7817106246948242e-01</leafValues></_>
        <_>
          <internalNodes>
            0 -1 28 -4.9639493227005005e-02</internalNodes>
          <leafValues>
            4.1371524333953857e-01 -5.6125706434249878e-01</leafValues></_>
        <_>
          <internalNodes>
            0 -1 108 -2.1567735821008682e-03</internalNodes>
          <leafValues>
            7.9153496026992798e-01 -2.9829075932502747e-01</leafValues></_>
        <_>
          <internalNodes>
            0 -1 65 -2.5771178305149078e-02</internalNodes>
          <leafValues>
            -7.6010394096374512e-01 2.9475986957550049e-01</leafValues></_>
        <_>
          <internalNodes>
            0 -1 129 -8.9519220637157559e-05</internalNodes>
          <leafValues>
            -7.0144093036651611e-01 2.6316991448402405e-01</leafValues></_>
        <_>
          <internalNodes>
            0 -1 117 -1.3263848377391696e-03</internalNodes>
          <leafValues>
            7.2924476861953735e-01 -2.5068452954292297e-01</leafValues></_>
        <_>
          <internalNodes>
            0 -1 232 -3.0475771054625511e-03</internalNodes>
          <leafValues>
            4.0162694454193115e-01 -4.5163062214851379e-01</leafValues></_>
        <_>
          <internalNodes>
            0 -1 211 4.7169822209980339e-05</internalNodes>
          <leafValues>
            2.6515686511993408e-01 -7.3736995458602905e-01</leafValues></_>
        <_>
          <internalNodes>
            0 -1 225 -1.9068848632741719e-04</internalNodes>
          <leafValues>
            -5.9377038478851318e-01 3.1001418828964233e-01</leafValues></_></weakClassifiers></_>
    <!-- stage 5 -->
    <_>
      <maxWeakCount>12</maxWeakCount>
      <stageThreshold>-1.4461244344711304e+00</stageThreshold>
      <weakClassifiers>
        <_>
          <internalNodes>
            0 -1 49 -2.5398287922143936e-02</internalNodes>
          <leafValues>
            5.6308215856552124e-01 -6.3245820999145508e-01</leafValues></_>
        <_>
          <internalNodes>
            0 -1 141 1.7314514843747020e-04</internalNodes>
          <leafValues>
            5.1150739192962646e-01 -4.6067196130752563e-01</leafValues></_>
        <_>
          <internalNodes>
            0 -1 153 -5.4579772986471653e-03</internalNodes>
          <leafValues>
            -7.6208335161209106e-01 3.2735896110534668e-01</leafValues></_>
        <_>
          <internalNodes>
            0 -1 54 -1.0148808360099792e-02</internalNodes>
          <leafValues>
            -8.9973223209381104e-01 1.8781548738479614e-01</leafValues></_>
        <_>
          <internalNodes>
            0 -1 30 2.4534139037132263e-01</internalNodes>
          <leafValues>
            -5.0031971931457520e-01 4.3685242533683777e-01</leafValues></_>
        <_>
          <internalNodes>
            0 -1 131 2.2290255874395370e-02</internalNodes>
          <leafValues>
            -6.8341004848480225e-01 2.7532303333282471e-01</leafValues></_>
        <_>
          <internalNodes>
            0 -1 118 8.1312395632266998e-03</internalNodes>
          <leafValues>
            -3.1842237710952759e-01 5.8563083410263062e-01</leafValues></_>
        <_>
          <internalNodes>
            0 -1 94 9.8680546507239342e-03</internalNodes>
          <leafValues>
            -4.1159030795097351e-01 4.9521735310554504e-01</leafValues></_>
        <_>
          <internalNodes>
            0 -1 230 1.5681493096053600e-04</internalNodes>
          <leafValues>
            2.5036031007766724e-01 -6.6384065151214600e-01</leafValues></_>
        <_>
          <internalNodes>
            0 -1 227 -7.8171273344196379e-05</internalNodes>
          <leafValues>
            -8.4200835227966309e-01 2.3286646604537964e-01</leafValues></_>
        <_>
          <internalNodes>
            0 -1 242 6.0712976846843958e-04</internalNodes>
          <leafValues>
            -3.6750647425651550e-01 5.2429640293121338e-01</leafValues></_>
        <_>
          <internalNodes>
            0 -1 218 -6.8696988746523857e-03</internalNodes>
          <leafValues>
            -7.4793970584869385e-01 2.5920498371124268e-01</leafValues></_></weakClassifiers></_>
    <!-- stage 6 -->
    <_>
      <maxWeakCount>10</maxWeakCount>
      <stageThreshold>-1.0879008769989014e+00</stageThreshold>
      <weakClassifiers>
        <_>
          <internalNodes>
            0 -1 173 -1.3014754652976990e-01</internalNodes>
          <leafValues>
            6.6390043497085571e-01 -3.7735849618911743e-01</leafValues></_>
        <_>
          <internalNodes>
            0 -1 2 7.8207448124885559e-02</internalNodes>
          <leafValues>
            -4.4794705510139465e-01 4.6922397613525391e-01</leafValues></_>
        <_>
          <internalNodes>
            0 -1 221 -9.6670730272307992e-05</internalNodes>
          <leafValues>
            -6.4863967895507812e-01 2.8674259781837463e-01</leafValues></_>
        <_>
          <internalNodes>
            0 -1 188 2.3771042469888926e-04</internalNodes>
          <leafValues>
            -5.8139371871948242e-01 3.8085952401161194e-01</leafValues></_>
        <_>
          <internalNodes>
            0 -1 73 1.4331538113765419e-04</internalNodes>
          <leafValues>
            3.0936262011528015e-01 -5.5095010995864868e-01</leafValues></_>
        <_>
          <internalNodes>
            0 -1 55 -3.1653046607971191e-02</internalNodes>
          <leafValues>
            1.5282242000102997e-01 -9.5156937837600708e-01</leafValues></_>
        <_>
          <internalNodes>
            0 -1 114 1.3692402839660645e-01</internalNodes>
          <leafValues>
            -4.1621410846710205e-01 4.4012349843978882e-01</leafValues></_>
        <_>
          <internalNodes>
            0 -1 67 1.2920090556144714e-01</internalNodes>
          <leafValues>
            1.9860014319419861e-01 -8.8704454898834229e-01</leafValues></_>
        <_>
          <internalNodes>
            0 -1 86 -6.1771064065396786e-04</internalNodes>
          <leafValues>
            8.4508407115936279e-01 -2.5579449534416199e-01</leafValues></_>
        <_>
          <internalNodes>
            0 -1 97 1.3564585242420435e-03</internalNodes>
          <leafValues>
            2.3049999773502350e-01 -9.5240896940231323e-01</leafValues></_></weakClassifiers></_>
    <!-- stage 7 -->
    <_>
      <maxWeakCount>10</maxWeakCount>
      <stageThreshold>-1.4244427680969238e+00</stageThreshold>
      <weakClassifiers>
        <_>
          <internalNodes>
            0 -1 116 1.3516530394554138e-01</internalNodes>
          <leafValues>
            -2.3387096822261810e-01 6.7056077718734741e-01</leafValues></_>
        <_>
          <internalNodes>
            0 -1 205 3.7029236555099487e-02</internalNodes>
          <leafValues>
            -8.6335724592208862e-01 2.8609934449195862e-01</leafValues></_>
        <_>
          <internalNodes>
            0 -1 209 2.0342902280390263e-04</internalNodes>
          <leafValues>
            2.6417118310928345e-01 -7.0322871208190918e-01</leafValues></_>
        <_>
          <internalNodes>
            0 -1 89 -3.0998536385595798e-03</internalNodes>
          <leafValues>
            5.2623748779296875e-01 -3.6105686426162720e-01</leafValues></_>
        <_>
          <internalNodes>
            0 -1 226 1.6787374624982476e-04</internalNodes>
          <leafValues>
            2.7543416619300842e-01 -6.9152522087097168e-01</leafValues></_>
        <_>
          <internalNodes>
            0 -1 77 6.4265057444572449e-03</internalNodes>
          <leafValues>
            -2.9523867368698120e-01 7.6569932699203491e-01</leafValues></_>
        <_>
          <internalNodes>
            0 -1 92 -3.9571551606059074e-03</internalNodes>
          <leafValues>
            6.8122118711471558e-01 -2.2891055047512054e-01</leafValues></_>
        <_>
          <internalNodes>
            0 -1 128 1.7561022832524031e-04</internalNodes>
          <leafValues>
            3.0451670289039612e-01 -6.3615775108337402e-01</leafValues></_>
        <_>
          <internalNodes>
            0 -1 101 1.0114983655512333e-02</internalNodes>
          <leafValues>
            -2.7721121907234192e-01 7.0382785797119141e-01</leafValues></_>
        <_>
          <internalNodes>
            0 -1 138 5.1891747862100601e-03</internalNodes>
          <leafValues>
            -2.1770142018795013e-01 7.5403147935867310e-01</leafValues></_></weakClassifiers></_>
    <!-- stage 8 -->
    <_>
      <maxWeakCount>15</maxWeakCount>
      <stageThreshold>-1.6853755712509155e+00</stageThreshold>
      <weakClassifiers>
        <_>
          <internalNodes>
            0 -1 15 -4.1739035623322707e-06</internalNodes>
          <leafValues>
            4.7826087474822998e-01 -6.1194032430648804e-01</leafValues></_>
        <_>
          <internalNodes>
            0 -1 180 1.6055864095687866e-01</internalNodes>
          <leafValues>
            -5.8643043041229248e-01 2.9705145955085754e-01</leafValues></_>
        <_>
          <internalNodes>
            0 -1 72 1.8603723496198654e-02</internalNodes>
          <leafValues>
            -6.0212790966033936e-01 3.0790001153945923e-01</leafValues></_>
        <_>
          <internalNodes>
            0 -1 186 -4.4230554252862930e-02</internalNodes>
          <leafValues>
            3.0876514315605164e-01 -5.4029047489166260e-01</leafValues></_>
        <_>
          <internalNodes>
            0 -1 217 -2.7108594076707959e-04</internalNodes>
          <leafValues>
            -6.3029772043228149e-01 2.8965896368026733e-01</leafValues></_>
        <_>
          <internalNodes>
            0 -1 6 2.0294608548283577e-03</internalNodes>
          <leafValues>
            -3.2661879062652588e-01 6.0636359453201294e-01</leafValues></_>
        <_>
          <internalNodes>
            0 -1 124 -1.4201850630342960e-02</internalNodes>
          <leafValues>
            6.8638110160827637e-01 -2.4843366444110870e-01</leafValues></_>
        <_>
          <internalNodes>
            0 -1 120 -1.8845353042706847e-03</internalNodes>
          <leafValues>
            7.1850812435150146e-01 -2.0536971092224121e-01</leafValues></_>
        <_>
          <internalNodes>
            0 -1 142 -6.2322753365151584e-05</internalNodes>
          <leafValues>
            -4.8094433546066284e-01 3.5880553722381592e-01</leafValues></_>
        <_>
          <internalNodes>
            0 -1 113 2.6847445406019688e-04</internalNodes>
          <leafValues>
            1.6045737266540527e-01 -8.8281363248825073e-01</leafValues></_>
        <_>
          <internalNodes>
            0 -1 204 -5.3510381840169430e-03</internalNodes>
          <leafValues>
            5.8160680532455444e-01 -3.0050763487815857e-01</leafValues></_>
        <_>
          <internalNodes>
            0 -1 111 4.1745863854885101e-03</internalNodes>
          <leafValues>
            2.2360832989215851e-01 -8.3695173263549805e-01</leafValues></_>
        <_>
          <internalNodes>
            0 -1 140 -7.6901435386389494e-04</internalNodes>
          <leafValues>
            -6.8108290433883667e-01 2.3557628691196442e-01</leafValues></_>
        <_>
          <internalNodes>
            0 -1 239 2.0016316557303071e-04</internalNodes>
          <leafValues>
            -2.2166736423969269e-01 8.4644007682800293e-01</leafValues></_>
        <_>
          <internalNodes>
            0 -1 243 -1.4042494585737586e-03</internalNodes>
          <leafValues>
            5.7646667957305908e-01 -2.4050779640674591e-01</leafValues></_></weakClassifiers></_>
    <!-- stage 9 -->
    <_>
      <maxWeakCount>20</maxWeakCount>
      <stageThreshold>-1.1795197725296021e+00</stageThreshold>
      <weakClassifiers>
        <_>
          <internalNodes>
            0 -1 158 4.0844619274139404e-02</internalNodes>
          <leafValues>
            -3.6947789788246155e-01 5.2994555234909058e-01</leafValues></_>
        <_>
          <internalNodes>
            0 -1 171 -2.1486539393663406e-02</internalNodes>
          <leafValues>
            2.2068570554256439e-01 -7.9183733463287354e-01</leafValues></_>
        <_>
          <internalNodes>
            0 -1 163 -7.6420400291681290e-03</internalNodes>
          <leafValues>
            -7.9251211881637573e-01 1.9779863953590393e-01</leafValues></_>
        <_>
          <internalNodes>
            0 -1 169 -1.1595875257626176e-03</internalNodes>
          <leafValues>
            7.6328623294830322e-01 -2.3237295448780060e-01</leafValues></_>
        <_>
          <internalNodes>
            0 -1 36 5.6784100830554962e-02</internalNodes>
          <leafValues>
            1.9901345670223236e-01 -8.0882591009140015e-01</leafValues></_>
        <_>
          <internalNodes>
            0 -1 220 -8.4925326518714428e-05</internalNodes>
          <leafValues>
            -6.2497860193252563e-01 1.9944140315055847e-01</leafValues></_>
        <_>
          <internalNodes>
            0 -1 85 -7.1156467311084270e-04</internalNodes>
          <leafValues>
            9.2304402589797974e-01 -2.0186993479728699e-01</leafValues></_>
        <_>
          <internalNodes>
            0 -1 52 1.3288322836160660e-02</internalNodes>
          <leafValues>
            2.0735487341880798e-01 -9.0658527612686157e-01</leafValues></_>
        <_>
          <internalNodes>
            0 -1 234 -5.4536030802410096e-05</internalNodes>
          <leafValues>
            -6.1916631460189819e-01 1.9071310758590698e-01</leafValues></_>
        <_>
          <internalNodes>
            0 -1 35 -4.7891527414321899e-02</internalNodes>
          <leafValues>
            -7.2206449508666992e-01 1.6188225150108337e-01</leafValues></_>
        <_>
          <internalNodes>
            0 -1 175 -4.9303390085697174e-02</internalNodes>
          <leafValues>
            6.4672315120697021e-01 -2.4819625914096832e-01</leafValues></_>
        <_>
          <internalNodes>
            0 -1 135 -6.4900800585746765e-02</internalNodes>
          <leafValues>
            -8.7686663866043091e-01 2.0493508875370026e-01</leafValues></_>
        <_>
          <internalNodes>
            0 -1 161 -1.7223987728357315e-02</internalNodes>
          <leafValues>
            3.1781232357025146e-01 -4.3877696990966797e-01</leafValues></_>
        <_>
          <internalNodes>
            0 -1 45 -6.8642671976704150e-05</internalNodes>
          <leafValues>
            1.8331180512905121e-01 -6.9025045633316040e-01</leafValues></_>
        <_>
          <internalNodes>
            0 -1 39 1.1888331500813365e-03</internalNodes>
          <leafValues>
            -2.1446414291858673e-01 6.5027260780334473e-01</leafValues></_>
        <_>
          <internalNodes>
            0 -1 11 3.4600350772961974e-04</internalNodes>
          <leafValues>
            -1.5994668006896973e-01 7.6780265569686890e-01</leafValues></_>
        <_>
          <internalNodes>
            0 -1 176 1.9010023679584265e-03</internalNodes>
          <leafValues>
            2.0737983286380768e-01 -7.1843063831329346e-01</leafValues></_>
        <_>
          <internalNodes>
            0 -1 149 1.1904095299541950e-03</internalNodes>
          <leafValues>
            -2.0218189060688019e-01 7.3913425207138062e-01</leafValues></_>
        <_>
          <internalNodes>
            0 -1 103 -1.6748788766562939e-04</internalNodes>
          <leafValues>
            -7.4032640457153320e-01 2.1434471011161804e-01</leafValues></_>
        <_>
          <internalNodes>
            0 -1 207 8.3962269127368927e-03</internalNodes>
          <leafValues>
            -2.1115896105766296e-01 7.5703001022338867e-01</leafValues></_></weakClassifiers></_>
    <!-- stage 10 -->
    <_>
      <maxWeakCount>15</maxWeakCount>
      <stageThreshold>-1.2680211067199707e+00</stageThreshold>
      <weakClassifiers>
        <_>
          <internalNodes>
            0 -1 166 5.1319278776645660e-02</internalNodes>
          <leafValues>
            -2.6194399595260620e-01 5.6294059753417969e-01</leafValues></_>
        <_>
          <internalNodes>
            0 -1 44 2.2780289873480797e-04</internalNodes>
          <leafValues>
            3.0299878120422363e-01 -5.3364700078964233e-01</leafValues></_>
        <_>
          <internalNodes>
            0 -1 68 2.4816874414682388e-02</internalNodes>
          <leafValues>
            -6.8656980991363525e-01 2.0797102153301239e-01</leafValues></_>
        <_>
          <internalNodes>
            0 -1 13 6.2639475800096989e-04</internalNodes>
          <leafValues>
            -2.7471369504928589e-01 5.1845288276672363e-01</leafValues></_>
        <_>
          <internalNodes>
            0 -1 215 1.1126799508929253e-03</internalNodes>
          <leafValues>
            2.2764976322650909e-01 -6.4846426248550415e-01</leafValues></_>
        <_>
          <internalNodes>
            0 -1 231 -6.0210921219550073e-05</internalNodes>
          <leafValues>
            -5.6030219793319702e-01 2.2056430578231812e-01</leafValues></_>
        <_>
          <internalNodes>
            0 -1 16 2.0900759845972061e-02</internalNodes>
          <leafValues>
            -3.1287989020347595e-01 5.7394635677337646e-01</leafValues></_>
        <_>
          <internalNodes>
            0 -1 199 7.2713068220764399e-05</internalNodes>
          <leafValues>
            2.4403089284896851e-01 -5.7902485132217407e-01</leafValues></_>
        <_>
          <internalNodes>
            0 -1 7 1.5452704392373562e-03</internalNodes>
          <leafValues>
            -2.1227908134460449e-01 6.9895380735397339e-01</leafValues></_>
        <_>
          <internalNodes>
            0 -1 187 1.9484339281916618e-03</internalNodes>
          <leafValues>
            -4.7512996196746826e-01 3.6570927500724792e-01</leafValues></_>
        <_>
          <internalNodes>
            0 -1 106 1.1535896360874176e-01</internalNodes>
          <leafValues>
            -3.1954172253608704e-01 4.3580648303031921e-01</leafValues></_>
        <_>
          <internalNodes>
            0 -1 223 -1.1569268535822630e-03</internalNodes>
          <leafValues>
            2.5065565109252930e-01 -6.2280815839767456e-01</leafValues></_>
        <_>
          <internalNodes>
            0 -1 71 3.0623070895671844e-02</internalNodes>
          <leafValues>
            -5.0151234865188599e-01 2.6669692993164062e-01</leafValues></_>
        <_>
          <internalNodes>
            0 -1 57 9.6477800980210304e-05</internalNodes>
          <leafValues>
            3.8353830575942993e-01 -3.8651084899902344e-01</leafValues></_>
        <_>
          <internalNodes>
            0 -1 222 -8.2807266153395176e-05</internalNodes>
          <leafValues>
            -8.2251781225204468e-01 1.6130946576595306e-01</leafValues></_></weakClassifiers></_>
    <!-- stage 11 -->
    <_>
      <maxWeakCount>13</maxWeakCount>
      <stageThreshold>-9.7865438461303711e-01</stageThreshold>
      <weakClassifiers>
        <_>
          <internalNodes>
            0 -1 33 -4.2554721236228943e-02</internalNodes>
          <leafValues>
            5.5401384830474854e-01 -2.6903551816940308e-01</leafValues></_>
        <_>
          <internalNodes>
            0 -1 112 -1.3807807117700577e-03</internalNodes>
          <leafValues>
            -6.3303506374359131e-01 2.6976186037063599e-01</leafValues></_>
        <_>
          <internalNodes>
            0 -1 230 1.1999977868981659e-04</internalNodes>
          <leafValues>
            2.3718924820423126e-01 -5.4563492536544800e-01</leafValues></_>
        <_>
          <internalNodes>
            0 -1 244 -1.0251686908304691e-03</internalNodes>
          <leafValues>
            3.8913565874099731e-01 -3.4417888522148132e-01</leafValues></_>
        <_>
          <internalNodes>
            0 -1 107 9.1582313179969788e-03</internalNodes>
          <leafValues>
            -2.1459881961345673e-01 6.0368919372558594e-01</leafValues></_>
        <_>
          <internalNodes>
            0 -1 79 -6.8892193958163261e-03</internalNodes>
          <leafValues>
            7.0047217607498169e-01 -2.7841383218765259e-01</leafValues></_>
        <_>
          <internalNodes>
            0 -1 99 -1.0774582187877968e-04</internalNodes>
          <leafValues>
            -4.1722473502159119e-01 3.5433825850486755e-01</leafValues></_>
        <_>
          <internalNodes>
            0 -1 110 -1.1792141199111938e-01</internalNodes>
          <leafValues>
            7.3692095279693604e-01 -2.0450504124164581e-01</leafValues></_>
        <_>
          <internalNodes>
            0 -1 130 2.3732089903205633e-04</internalNodes>
          <leafValues>
            3.5790836811065674e-01 -4.3101629614830017e-01</leafValues></_>
        <_>
          <internalNodes>
            0 -1 81 1.3872692361474037e-03</internalNodes>
          <leafValues>
            -2.0538336038589478e-01 7.2985267639160156e-01</leafValues></_>
        <_>
          <internalNodes>
            0 -1 74 1.2606427771970630e-03</internalNodes>
          <leafValues>
            -1.6984969377517700e-01 7.6028257608413696e-01</leafValues></_>
        <_>
          <internalNodes>
            0 -1 66 -2.9073157906532288e-01</internalNodes>
          <leafValues>
            5.0790357589721680e-01 -2.3453649878501892e-01</leafValues></_>
        <_>
          <internalNodes>
            0 -1 185 1.0139448568224907e-04</internalNodes>
          <leafValues>
            3.1551238894462585e-01 -4.2795041203498840e-01</leafValues></_></weakClassifiers></_>
    <!-- stage 12 -->
    <_>
      <maxWeakCount>15</maxWeakCount>
      <stageThreshold>-1.3448625802993774e+00</stageThreshold>
      <weakClassifiers>
        <_>
          <internalNodes>
            0 -1 34 -5.1741385832428932e-03</internalNodes>
          <leafValues>
            5.1822221279144287e-01 -3.8526314496994019e-01</leafValues></_>
        <_>
          <internalNodes>
            0 -1 51 -6.1076473444700241e-02</internalNodes>
          <leafValues>
            7.1539032459259033e-01 -1.7058956623077393e-01</leafValues></_>
        <_>
          <internalNodes>
            0 -1 143 1.8784767598845065e-04</internalNodes>
          <leafValues>
            2.4776443839073181e-01 -4.9884474277496338e-01</leafValues></_>
        <_>
          <internalNodes>
            0 -1 26 2.2965754568576813e-01</internalNodes>
          <leafValues>
            -3.7325742840766907e-01 3.9652749896049500e-01</leafValues></_>
        <_>
          <internalNodes>
            0 -1 56 -7.8081145882606506e-02</internalNodes>
          <leafValues>
            6.3994473218917847e-01 -2.0544564723968506e-01</leafValues></_>
        <_>
          <internalNodes>
            0 -1 12 1.8393983191344887e-04</internalNodes>
          <leafValues>
            -2.4209588766098022e-01 4.8622536659240723e-01</leafValues></_>
        <_>
          <internalNodes>
            0 -1 84 1.9688722386490554e-04</internalNodes>
          <leafValues>
            3.1763234734535217e-01 -4.3871325254440308e-01</leafValues></_>
        <_>
          <internalNodes>
            0 -1 148 -5.8700786903500557e-03</internalNodes>
          <leafValues>
            7.1463525295257568e-01 -1.9143161177635193e-01</leafValues></_>
        <_>
          <internalNodes>
            0 -1 154 7.6419804827310145e-05</internalNodes>
          <leafValues>
            3.2740145921707153e-01 -4.3628516793251038e-01</leafValues></_>
        <_>
          <internalNodes>
            0 -1 241 1.7782860959414393e-04</internalNodes>
          <leafValues>
            -2.3878464102745056e-01 6.3011658191680908e-01</leafValues></_>
        <_>
          <internalNodes>
            0 -1 27 -5.5889098439365625e-04</internalNodes>
          <leafValues>
            2.5224819779396057e-01 -5.2168852090835571e-01</leafValues></_>
        <_>
          <internalNodes>
            0 -1 59 -5.9166504070162773e-03</internalNodes>
          <leafValues>
            -7.5014591217041016e-01 1.7227201163768768e-01</leafValues></_>
        <_>
          <internalNodes>
            0 -1 224 -6.3279969617724419e-03</internalNodes>
          <leafValues>
            2.0115278661251068e-01 -5.8869826793670654e-01</leafValues></_>
        <_>
          <internalNodes>
            0 -1 24 3.2330602407455444e-01</internalNodes>
          <leafValues>
            1.1286685615777969e-01 -9.6731442213058472e-01</leafValues></_>
        <_>
          <internalNodes>
            0 -1 96 1.0673642100300640e-04</internalNodes>
          <leafValues>
            1.5329366922378540e-01 -6.7937129735946655e-01</leafValues></_></weakClassifiers></_>
    <!-- stage 13 -->
    <_>
      <maxWeakCount>13</maxWeakCount>
      <stageThreshold>-1.0828802585601807e+00</stageThreshold>
      <weakClassifiers>
        <_>
          <internalNodes>
            0 -1 1 1.3343261182308197e-01</internalNodes>
          <leafValues>
            -3.8758030533790588e-01 5.1279789209365845e-01</leafValues></_>
        <_>
          <internalNodes>
            0 -1 38 -3.2023672014474869e-02</internalNodes>
          <leafValues>
            -7.5794607400894165e-01 2.2643499076366425e-01</leafValues></_>
        <_>
          <internalNodes>
            0 -1 63 2.0328950881958008e-01</internalNodes>
          <leafValues>
            -3.1490427255630493e-01 4.4131806492805481e-01</leafValues></_>
        <_>
          <internalNodes>
            0 -1 193 2.4589555687271059e-04</internalNodes>
          <leafValues>
            -1.8494400382041931e-01 7.0560836791992188e-01</leafValues></_>
        <_>
          <internalNodes>
            0 -1 18 2.7490932494401932e-02</internalNodes>
          <leafValues>
            2.0014673471450806e-01 -7.5096261501312256e-01</leafValues></_>
        <_>
          <internalNodes>
            0 -1 237 7.7042018529027700e-04</internalNodes>
          <leafValues>
            -2.0791713893413544e-01 6.0559689998626709e-01</leafValues></_>
        <_>
          <internalNodes>
            0 -1 168 -5.8842619182541966e-05</internalNodes>
          <leafValues>
            -5.4968041181564331e-01 2.1453982591629028e-01</leafValues></_>
        <_>
          <internalNodes>
            0 -1 50 -5.7308509713038802e-04</internalNodes>
          <leafValues>
            4.0950700640678406e-01 -3.4339457750320435e-01</leafValues></_>
        <_>
          <internalNodes>
            0 -1 60 5.8163600042462349e-03</internalNodes>
          <leafValues>
            -2.9007047414779663e-01 4.4887655973434448e-01</leafValues></_>
        <_>
          <internalNodes>
            0 -1 150 1.3313652016222477e-03</internalNodes>
          <leafValues>
            -3.5893264412879944e-01 3.5400706529617310e-01</leafValues></_>
        <_>
          <internalNodes>
            0 -1 80 4.7907084226608276e-03</internalNodes>
          <leafValues>
            -2.3994556069374084e-01 5.2809226512908936e-01</leafValues></_>
        <_>
          <internalNodes>
            0 -1 192 6.6437199711799622e-03</internalNodes>
          <leafValues>
            1.4519937336444855e-01 -9.1745573282241821e-01</leafValues></_>
        <_>
          <internalNodes>
            0 -1 213 3.3909239573404193e-04</internalNodes>
          <leafValues>
            -2.1041086316108704e-01 7.1731317043304443e-01</leafValues></_></weakClassifiers></_>
    <!-- stage 14 -->
    <_>
      <maxWeakCount>16</maxWeakCount>
      <stageThreshold>-1.0344372987747192e+00</stageThreshold>
      <weakClassifiers>
        <_>
          <internalNodes>
            0 -1 145 3.1353227794170380e-02</internalNodes>
          <leafValues>
            -3.6774194240570068e-01 5.0308370590209961e-01</leafValues></_>
        <_>
          <internalNodes>
            0 -1 100 -1.6175437485799193e-04</internalNodes>
          <leafValues>
            -5.7508838176727295e-01 2.2710162401199341e-01</leafValues></_>
        <_>
          <internalNodes>
            0 -1 10 1.1660351883620024e-03</internalNodes>
          <leafValues>
            -2.7786949276924133e-01 5.2059835195541382e-01</leafValues></_>
        <_>
          <internalNodes>
            0 -1 127 1.0956674814224243e-02</internalNodes>
          <leafValues>
            -2.7568185329437256e-01 4.3331843614578247e-01</leafValues></_>
        <_>
          <internalNodes>
            0 -1 177 1.7429232830181718e-03</internalNodes>
          <leafValues>
            1.6585223376750946e-01 -6.9149255752563477e-01</leafValues></_>
        <_>
          <internalNodes>
            0 -1 75 -7.4693355709314346e-03</internalNodes>
          <leafValues>
            4.3730196356773376e-01 -3.1409883499145508e-01</leafValues></_>
        <_>
          <internalNodes>
            0 -1 201 4.8400630475953221e-04</internalNodes>
          <leafValues>
            2.4637302756309509e-01 -5.9788793325424194e-01</leafValues></_>
        <_>
          <internalNodes>
            0 -1 40 -6.5357459243386984e-04</internalNodes>
          <leafValues>
            5.7043915987014771e-01 -2.7171385288238525e-01</leafValues></_>
        <_>
          <internalNodes>
            0 -1 147 3.6934498348273337e-04</internalNodes>
          <leafValues>
            -1.2425218522548676e-01 7.1182996034622192e-01</leafValues></_>
        <_>
          <internalNodes>
            0 -1 64 -3.4047428518533707e-02</internalNodes>
          <leafValues>
            1.6897322237491608e-01 -7.2810047864913940e-01</leafValues></_>
        <_>
          <internalNodes>
            0 -1 19 5.3464529628399760e-05</internalNodes>
          <leafValues>
            -3.1920370459556580e-01 4.1548323631286621e-01</leafValues></_>
        <_>
          <internalNodes>
            0 -1 17 -7.3220789432525635e-02</internalNodes>
          <leafValues>
            -7.5500565767288208e-01 1.6275788843631744e-01</leafValues></_>
        <_>
          <internalNodes>
            0 -1 233 5.3919211495667696e-04</internalNodes>
          <leafValues>
            -1.9084037840366364e-01 7.0879036188125610e-01</leafValues></_>
        <_>
          <internalNodes>
            0 -1 152 -3.9285067468881607e-03</internalNodes>
          <leafValues>
            -5.1878136396408081e-01 2.4032640457153320e-01</leafValues></_>
        <_>
          <internalNodes>
            0 -1 122 1.1241685133427382e-03</internalNodes>
          <leafValues>
            -2.1771393716335297e-01 5.8757728338241577e-01</leafValues></_>
        <_>
          <internalNodes>
            0 -1 250 2.0625381148420274e-04</internalNodes>
          <leafValues>
            -3.8720971345901489e-01 3.4216421842575073e-01</leafValues></_></weakClassifiers></_>
    <!-- stage 15 -->
    <_>
      <maxWeakCount>17</maxWeakCount>
      <stageThreshold>-1.3874819278717041e+00</stageThreshold>
      <weakClassifiers>
        <_>
          <internalNodes>
            0 -1 83 1.9492796855047345e-04</internalNodes>
          <leafValues>
            4.5695364475250244e-01 -3.8775509595870972e-01</leafValues></_>
        <_>
          <internalNodes>
            0 -1 156 -1.9661792612168938e-04</internalNodes>
          <leafValues>
            -5.0883853435516357e-01 2.8123730421066284e-01</leafValues></_>
        <_>
          <internalNodes>
            0 -1 70 5.9525407850742340e-03</internalNodes>
          <leafValues>
            -3.3549290895462036e-01 4.2568710446357727e-01</leafValues></_>
        <_>
          <internalNodes>
            0 -1 82 -2.6024976745247841e-02</internalNodes>
          <leafValues>
            3.0317318439483643e-01 -4.0748730301856995e-01</leafValues></_>
        <_>
          <internalNodes>
            0 -1 14 6.9137592799961567e-04</internalNodes>
          <leafValues>
            -2.0211070775985718e-01 5.4927843809127808e-01</leafValues></_>
        <_>
          <internalNodes>
            0 -1 245 -2.4242498911917210e-03</internalNodes>
          <leafValues>
            6.4052885770797729e-01 -2.1376085281372070e-01</leafValues></_>
        <_>
          <internalNodes>
            0 -1 47 -1.3202197442296892e-04</internalNodes>
          <leafValues>
            -6.5144002437591553e-01 2.2264088690280914e-01</leafValues></_>
        <_>
          <internalNodes>
            0 -1 76 -3.4206435084342957e-03</internalNodes>
          <leafValues>
            4.1022980213165283e-01 -2.8107419610023499e-01</leafValues></_>
        <_>
          <internalNodes>
            0 -1 202 9.3697011470794678e-04</internalNodes>
          <leafValues>
            -4.3898817896842957e-01 2.5111860036849976e-01</leafValues></_>
        <_>
          <internalNodes>
            0 -1 98 3.0083898454904556e-03</internalNodes>
          <leafValues>
            1.6679926216602325e-01 -7.3443704843521118e-01</leafValues></_>
        <_>
          <internalNodes>
            0 -1 93 -8.4682047599926591e-04</internalNodes>
          <leafValues>
            7.8808510303497314e-01 -1.4935167133808136e-01</leafValues></_>
        <_>
          <internalNodes>
            0 -1 195 6.1517965514212847e-04</internalNodes>
          <leafValues>
            -1.3154299557209015e-01 8.1229716539382935e-01</leafValues></_>
        <_>
          <internalNodes>
            0 -1 219 -2.2928745602257550e-04</internalNodes>
          <leafValues>
            -7.6522862911224365e-01 1.7277820408344269e-01</leafValues></_>
        <_>
          <internalNodes>
            0 -1 25 -3.8706953637301922e-04</internalNodes>
          <leafValues>
            5.1777452230453491e-01 -2.3796686530113220e-01</leafValues></_>
        <_>
          <internalNodes>
            0 -1 236 2.6839110432774760e-05</internalNodes>
          <leafValues>
            -3.0181533098220825e-01 3.5088735818862915e-01</leafValues></_>
        <_>
          <internalNodes>
            0 -1 182 6.2773539684712887e-04</internalNodes>
          <leafValues>
            -1.6686838865280151e-01 6.7348963022232056e-01</leafValues></_>
        <_>
          <internalNodes>
            0 -1 179 -7.3321792297065258e-03</internalNodes>
          <leafValues>
            -6.6942590475082397e-01 1.7856816947460175e-01</leafValues></_></weakClassifiers></_>
    <!-- stage 16 -->
    <_>
      <maxWeakCount>17</maxWeakCount>
      <stageThreshold>-1.1515095233917236e+00</stageThreshold>
      <weakClassifiers>
        <_>
          <internalNodes>
            0 -1 95 -1.9773625535890460e-04</internalNodes>
          <leafValues>
            -3.2879817485809326e-01 4.7023296356201172e-01</leafValues></_>
        <_>
          <internalNodes>
            0 -1 240 8.6213252507150173e-04</internalNodes>
          <leafValues>
            -2.5315451622009277e-01 5.2162373065948486e-01</leafValues></_>
        <_>
          <internalNodes>
            0 -1 48 1.5831293421797454e-04</internalNodes>
          <leafValues>
            3.2882842421531677e-01 -4.1847911477088928e-01</leafValues></_>
        <_>
          <internalNodes>
            0 -1 78 1.7623636126518250e-01</internalNodes>
          <leafValues>
            -3.2151195406913757e-01 4.9940314888954163e-01</leafValues></_>
        <_>
          <internalNodes>
            0 -1 178 1.0163717524847016e-04</internalNodes>
          <leafValues>
            3.4895089268684387e-01 -4.2388948798179626e-01</leafValues></_>
        <_>
          <internalNodes>
            0 -1 157 9.3434602022171021e-03</internalNodes>
          <leafValues>
            1.6234281659126282e-01 -7.0538276433944702e-01</leafValues></_>
        <_>
          <internalNodes>
            0 -1 105 -8.0394029617309570e-02</internalNodes>
          <leafValues>
            -7.1546018123626709e-01 1.6321676969528198e-01</leafValues></_>
        <_>
          <internalNodes>
            0 -1 159 -4.9607792789174709e-06</internalNodes>
          <leafValues>
            1.1495857685804367e-01 -7.9063165187835693e-01</leafValues></_>
        <_>
          <internalNodes>
            0 -1 194 8.7680586148053408e-04</internalNodes>
          <leafValues>
            -1.8276926875114441e-01 7.6541870832443237e-01</leafValues></_>
        <_>
          <internalNodes>
            0 -1 212 -1.0605220450088382e-04</internalNodes>
          <leafValues>
            -7.3239272832870483e-01 1.9772556424140930e-01</leafValues></_>
        <_>
          <internalNodes>
            0 -1 146 -3.0031371861696243e-03</internalNodes>
          <leafValues>
            5.3422015905380249e-01 -2.3548501729965210e-01</leafValues></_>
        <_>
          <internalNodes>
            0 -1 21 -6.4279141952283680e-05</internalNodes>
          <leafValues>
            2.7615663409233093e-01 -4.1956830024719238e-01</leafValues></_>
        <_>
          <internalNodes>
            0 -1 22 -5.1428675651550293e-03</internalNodes>
          <leafValues>
            -7.7722054719924927e-01 1.4708434045314789e-01</leafValues></_>
        <_>
          <internalNodes>
            0 -1 46 -1.6937460750341415e-03</internalNodes>
          <leafValues>
            7.2332942485809326e-01 -1.9036895036697388e-01</leafValues></_>
        <_>
          <internalNodes>
            0 -1 198 1.6781990416347980e-04</internalNodes>
          <leafValues>
            2.8369602560997009e-01 -4.4331544637680054e-01</leafValues></_>
        <_>
          <internalNodes>
            0 -1 229 -1.1847138375742361e-04</internalNodes>
          <leafValues>
            -5.0983256101608276e-01 2.0926252007484436e-01</leafValues></_>
        <_>
          <internalNodes>
            0 -1 136 -7.7019596938043833e-04</internalNodes>
          <leafValues>
            5.6827151775360107e-01 -2.2220604121685028e-01</leafValues></_></weakClassifiers></_>
    <!-- stage 17 -->
    <_>
      <maxWeakCount>17</maxWeakCount>
      <stageThreshold>-9.5361202955245972e-01</stageThreshold>
      <weakClassifiers>
        <_>
          <internalNodes>
            0 -1 20 -6.5508000552654266e-03</internalNodes>
          <leafValues>
            -5.4646837711334229e-01 4.1096919775009155e-01</leafValues></_>
        <_>
          <internalNodes>
            0 -1 31 5.1750011742115021e-02</internalNodes>
          <leafValues>
            -4.8582500219345093e-01 3.0854484438896179e-01</leafValues></_>
        <_>
          <internalNodes>
            0 -1 172 -1.2841993011534214e-03</internalNodes>
          <leafValues>
            1.9699177145957947e-01 -6.7670100927352905e-01</leafValues></_>
        <_>
          <internalNodes>
            0 -1 128 -7.1747388574294746e-05</internalNodes>
          <leafValues>
            -5.2589643001556396e-01 1.8244405090808868e-01</leafValues></_>
        <_>
          <internalNodes>
            0 -1 183 4.4173905625939369e-03</internalNodes>
          <leafValues>
            1.3229919970035553e-01 -7.8152626752853394e-01</leafValues></_>
        <_>
          <internalNodes>
            0 -1 228 -6.1163008213043213e-03</internalNodes>
          <leafValues>
            1.9219104945659637e-01 -5.2720510959625244e-01</leafValues></_>
        <_>
          <internalNodes>
            0 -1 200 -1.4760971069335938e-02</internalNodes>
          <leafValues>
            1.6418617963790894e-01 -5.8241462707519531e-01</leafValues></_>
        <_>
          <internalNodes>
            0 -1 121 2.0230058580636978e-03</internalNodes>
          <leafValues>
            -2.0886386930942535e-01 5.7064020633697510e-01</leafValues></_>
        <_>
          <internalNodes>
            0 -1 37 -1.1446099728345871e-02</internalNodes>
          <leafValues>
            4.3660363554954529e-01 -2.7370020747184753e-01</leafValues></_>
        <_>
          <internalNodes>
            0 -1 5 3.0202579498291016e-01</internalNodes>
          <leafValues>
            -2.0252892374992371e-01 6.4014828205108643e-01</leafValues></_>
        <_>
          <internalNodes>
            0 -1 102 -7.5981399277225137e-05</internalNodes>
          <leafValues>
            -6.2315952777862549e-01 2.4175688624382019e-01</leafValues></_>
        <_>
          <internalNodes>
            0 -1 174 4.1896980255842209e-03</internalNodes>
          <leafValues>
            2.8321081399917603e-01 -4.7089743614196777e-01</leafValues></_>
        <_>
          <internalNodes>
            0 -1 181 -4.2590424418449402e-03</internalNodes>
          <leafValues>
            -8.2637280225753784e-01 1.2392314523458481e-01</leafValues></_>
        <_>
          <internalNodes>
            0 -1 238 6.4893690869212151e-03</internalNodes>
          <leafValues>
            -1.5281176567077637e-01 7.7976149320602417e-01</leafValues></_>
        <_>
          <internalNodes>
            0 -1 165 7.7714817598462105e-04</internalNodes>
          <leafValues>
            1.7313896119594574e-01 -7.9468059539794922e-01</leafValues></_>
        <_>
          <internalNodes>
            0 -1 126 -8.1831653369590640e-04</internalNodes>
          <leafValues>
            4.9960163235664368e-01 -2.2996607422828674e-01</leafValues></_>
        <_>
          <internalNodes>
            0 -1 4 2.6585138402879238e-03</internalNodes>
          <leafValues>
            -3.3276343345642090e-01 3.4287640452384949e-01</leafValues></_></weakClassifiers></_>
    <!-- stage 18 -->
    <_>
      <maxWeakCount>16</maxWeakCount>
      <stageThreshold>-1.3490602970123291e+00</stageThreshold>
      <weakClassifiers>
        <_>
          <internalNodes>
            0 -1 184 -2.8300355188548565e-04</internalNodes>
          <leafValues>
            -3.6036035418510437e-01 4.8442906141281128e-01</leafValues></_>
        <_>
          <internalNodes>
            0 -1 235 -9.5621129730716348e-05</internalNodes>
          <leafValues>
            -5.0464487075805664e-01 2.5005856156349182e-01</leafValues></_>
        <_>
          <internalNodes>
            0 -1 191 -1.7908331006765366e-02</internalNodes>
          <leafValues>
            3.6666914820671082e-01 -3.3019259572029114e-01</leafValues></_>
        <_>
          <internalNodes>
            0 -1 115 1.7334434669464827e-03</internalNodes>
          <leafValues>
            -1.7647963762283325e-01 8.6424314975738525e-01</leafValues></_>
        <_>
          <internalNodes>
            0 -1 42 -9.2190271243453026e-03</internalNodes>
          <leafValues>
            4.2371216416358948e-01 -2.7976974844932556e-01</leafValues></_>
        <_>
          <internalNodes>
            0 -1 62 7.9364348202943802e-03</internalNodes>
          <leafValues>
            -2.2698147594928741e-01 5.1412367820739746e-01</leafValues></_>
        <_>
          <internalNodes>
            0 -1 125 3.6707120016217232e-03</internalNodes>
          <leafValues>
            -1.7514728009700775e-01 7.2387641668319702e-01</leafValues></_>
        <_>
          <internalNodes>
            0 -1 206 -8.3537539467215538e-04</internalNodes>
          <leafValues>
            -4.9595829844474792e-01 2.7398008108139038e-01</leafValues></_>
        <_>
          <internalNodes>
            0 -1 210 1.2205053644720465e-04</internalNodes>
          <leafValues>
            2.0064517855644226e-01 -5.9762245416641235e-01</leafValues></_>
        <_>
          <internalNodes>
            0 -1 87 -4.1514441370964050e-02</internalNodes>
          <leafValues>
            2.3647905886173248e-01 -4.7303226590156555e-01</leafValues></_>
        <_>
          <internalNodes>
            0 -1 61 7.6195690780878067e-03</internalNodes>
          <leafValues>
            -2.3617127537727356e-01 5.4367303848266602e-01</leafValues></_>
        <_>
          <internalNodes>
            0 -1 41 -1.3611862959805876e-04</internalNodes>
          <leafValues>
            4.3446496129035950e-01 -2.7145898342132568e-01</leafValues></_>
        <_>
          <internalNodes>
            0 -1 249 4.1399509063921869e-04</internalNodes>
          <leafValues>
            -1.7601130902767181e-01 6.6229099035263062e-01</leafValues></_>
        <_>
          <internalNodes>
            0 -1 144 4.9281168729066849e-02</internalNodes>
          <leafValues>
            -1.2345889210700989e-01 7.8114914894104004e-01</leafValues></_>
        <_>
          <internalNodes>
            0 -1 32 -3.1491089612245560e-04</internalNodes>
          <leafValues>
            -6.4843809604644775e-01 1.9206175208091736e-01</leafValues></_>
        <_>
          <internalNodes>
            0 -1 246 -1.1732286075130105e-03</internalNodes>
          <leafValues>
            6.2163376808166504e-01 -2.1036158502101898e-01</leafValues></_></weakClassifiers></_>
    <!-- stage 19 -->
    <_>
      <maxWeakCount>16</maxWeakCount>
      <stageThreshold>-1.2398778200149536e+00</stageThreshold>
      <weakClassifiers>
        <_>
          <internalNodes>
            0 -1 132 5.4899014532566071e-02</internalNodes>
          <leafValues>
            4.0460282564163208e-01 -5.7312250137329102e-01</leafValues></_>
        <_>
          <internalNodes>
            0 -1 155 1.3031065464019775e-04</internalNodes>
          <leafValues>
            2.8894942998886108e-01 -4.7932034730911255e-01</leafValues></_>
        <_>
          <internalNodes>
            0 -1 9 1.2607225216925144e-03</internalNodes>
          <leafValues>
            -2.0054033398628235e-01 5.7954990863800049e-01</leafValues></_>
        <_>
          <internalNodes>
            0 -1 134 -4.7941198572516441e-03</internalNodes>
          <leafValues>
            5.4337561130523682e-01 -2.2810073196887970e-01</leafValues></_>
        <_>
          <internalNodes>
            0 -1 88 4.3633407913148403e-03</internalNodes>
          <leafValues>
            2.2328598797321320e-01 -5.5854755640029907e-01</leafValues></_>
        <_>
          <internalNodes>
            0 -1 133 -1.2719785445369780e-04</internalNodes>
          <leafValues>
            1.9298793375492096e-01 -7.7115482091903687e-01</leafValues></_>
        <_>
          <internalNodes>
            0 -1 23 -3.8797691464424133e-02</internalNodes>
          <leafValues>
            -8.8316208124160767e-01 9.6922136843204498e-02</leafValues></_>
        <_>
          <internalNodes>
            0 -1 43 -6.4841851592063904e-02</internalNodes>
          <leafValues>
            6.9281870126724243e-01 -1.9055710732936859e-01</leafValues></_>
        <_>
          <internalNodes>
            0 -1 8 -5.7430821470916271e-04</internalNodes>
          <leafValues>
            5.7401311397552490e-01 -2.3927518725395203e-01</leafValues></_>
        <_>
          <internalNodes>
            0 -1 29 -7.9084746539592743e-04</internalNodes>
          <leafValues>
            1.9364990293979645e-01 -6.3314986228942871e-01</leafValues></_>
        <_>
          <internalNodes>
            0 -1 214 2.8391470550559461e-04</internalNodes>
          <leafValues>
            -1.6105391085147858e-01 7.9550504684448242e-01</leafValues></_>
        <_>
          <internalNodes>
            0 -1 0 1.6587489843368530e-01</internalNodes>
          <leafValues>
            1.6458183526992798e-01 -9.0505588054656982e-01</leafValues></_>
        <_>
          <internalNodes>
            0 -1 58 2.6770064141601324e-04</internalNodes>
          <leafValues>
            2.0866599678993225e-01 -5.1959514617919922e-01</leafValues></_>
        <_>
          <internalNodes>
            0 -1 203 7.0470187347382307e-04</internalNodes>
          <leafValues>
            3.5480076074600220e-01 -3.1316766142845154e-01</leafValues></_>
        <_>
          <internalNodes>
            0 -1 247 -6.5226326114498079e-05</internalNodes>
          <leafValues>
            -4.7108766436576843e-01 2.4505738914012909e-01</leafValues></_>
        <_>
          <internalNodes>
            0 -1 104 -5.5819924455136061e-04</internalNodes>
          <leafValues>
            5.8960139751434326e-01 -2.3201596736907959e-01</leafValues></_></weakClassifiers></_></stages>
  <features>
    <_>
      <rects>
        <_>
          0 0 19 18 -1.</_>
        <_>
          0 9 19 9 2.</_></rects>
      <tilted>0</tilted></_>
    <_>
      <rects>
        <_>
          0 2 20 36 -1.</_>
        <_>
          0 14 20 12 3.</_></rects>
      <tilted>0</tilted></_>
    <_>
      <rects>
        <_>
          0 4 9 36 -1.</_>
        <_>
          3 16 3 12 9.</_></rects>
      <tilted>0</tilted></_>
    <_>
      <rects>
        <_>
          0 12 2 16 -1.</_>
        <_>
          1 12 1 16 2.</_></rects>
      <tilted>0</tilted></_>
    <_>
      <rects>
        <_>
          0 12 18 3 -1.</_>
        <_>
          6 13 6 1 9.</_></rects>
      <tilted>0</tilted></_>
    <_>
      <rects>
        <_>
          0 12 24 27 -1.</_>
        <_>
          8 21 8 9 9.</_></rects>
      <tilted>0</tilted></_>
    <_>
      <rects>
        <_>
          0 13 2 15 -1.</_>
        <_>
          1 13 1 15 2.</_></rects>
      <tilted>0</tilted></_>
    <_>
      <rects>
        <_>
          0 13 6 2 -1.</_>
        <_>
          2 13 2 2 3.</_></rects>
      <tilted>0</tilted></_>
    <_>
      <rects>
        <_>
          0 14 2 8 -1.</_>
        <_>
          0 14 1 4 2.</_>
        <_>
          1 18 1 4 2.</_></rects>
      <tilted>0</tilted></_>
    <_>
      <rects>
        <_>
          0 15 3 9 -1.</_>
        <_>
          1 15 1 9 3.</_></rects>
      <tilted>0</tilted></_>
    <_>
      <rects>
        <_>
          0 15 4 12 -1.</_>
        <_>
          1 15 2 12 2.</_></rects>
      <tilted>0</tilted></_>
    <_>
      <rects>
        <_>
          0 16 3 1 -1.</_>
        <_>
          1 16 1 1 3.</_></rects>
      <tilted>0</tilted></_>
    <_>
      <rects>
        <_>
          0 16 3 2 -1.</_>
        <_>
          1 16 1 2 3.</_></rects>
      <tilted>0</tilted></_>
    <_>
      <rects>
        <_>
          0 16 3 9 -1.</_>
        <_>
          1 16 1 9 3.</_></rects>
      <tilted>0</tilted></_>
    <_>
      <rects>
        <_>
          0 23 3 4 -1.</_>
        <_>
          1 23 1 4 3.</_></rects>
      <tilted>0</tilted></_>
    <_>
      <rects>
        <_>
          0 23 20 2 -1.</_>
        <_>
          0 24 20 1 2.</_></rects>
      <tilted>0</tilted></_>
    <_>
      <rects>
        <_>
          0 24 10 12 -1.</_>
        <_>
          5 24 5 12 2.</_></rects>
      <tilted>0</tilted></_>
    <_>
      <rects>
        <_>
          1 0 36 10 -1.</_>
        <_>
          19 0 18 10 2.</_></rects>
      <tilted>0</tilted></_>
    <_>
      <rects>
        <_>
          1 2 28 12 -1.</_>
        <_>
          15 2 14 12 2.</_></rects>
      <tilted>0</tilted></_>
    <_>
      <rects>
        <_>
          1 13 3 1 -1.</_>
        <_>
          2 13 1 1 3.</_></rects>
      <tilted>0</tilted></_>
    <_>
      <rects>
        <_>
          1 19 39 6 -1.</_>
        <_>
          1 22 39 3 2.</_></rects>
      <tilted>0</tilted></_>
    <_>
      <rects>
        <_>
          1 26 16 2 -1.</_>
        <_>
          1 27 16 1 2.</_></rects>
      <tilted>0</tilted></_>
    <_>
      <rects>
        <_>
          1 37 10 3 -1.</_>
        <_>
          6 37 5 3 2.</_></rects>
      <tilted>0</tilted></_>
    <_>
      <rects>
        <_>
          1 37 39 3 -1.</_>
        <_>
          14 37 13 3 3.</_></rects>
      <tilted>0</tilted></_>
    <_>
      <rects>
        <_>
          2 2 35 36 -1.</_>
        <_>
          2 20 35 18 2.</_></rects>
      <tilted>0</tilted></_>
    <_>
      <rects>
        <_>
          2 5 3 9 -1.</_>
        <_>
          3 5 1 9 3.</_></rects>
      <tilted>0</tilted></_>
    <_>
      <rects>
        <_>
          2 8 21 27 -1.</_>
        <_>
          9 17 7 9 9.</_></rects>
      <tilted>0</tilted></_>
    <_>
      <rects>
        <_>
          2 11 8 2 -1.</_>
        <_>
          2 11 4 2 2.</_></rects>
      <tilted>1</tilted></_>
    <_>
      <rects>
        <_>
          2 21 36 5 -1.</_>
        <_>
          11 21 18 5 2.</_></rects>
      <tilted>0</tilted></_>
    <_>
      <rects>
        <_>
          2 21 18 4 -1.</_>
        <_>
          2 23 18 2 2.</_></rects>
      <tilted>0</tilted></_>
    <_>
      <rects>
        <_>
          3 4 21 27 -1.</_>
        <_>
          10 13 7 9 9.</_></rects>
      <tilted>0</tilted></_>
    <_>
      <rects>
        <_>
          3 5 37 27 -1.</_>
        <_>
          3 14 37 9 3.</_></rects>
      <tilted>0</tilted></_>
    <_>
      <rects>
        <_>
          3 18 8 2 -1.</_>
        <_>
          7 18 4 2 2.</_></rects>
      <tilted>0</tilted></_>
    <_>
      <rects>
        <_>
          3 21 24 5 -1.</_>
        <_>
          15 21 12 5 2.</_></rects>
      <tilted>0</tilted></_>
    <_>
      <rects>
        <_>
          3 22 7 18 -1.</_>
        <_>
          3 31 7 9 2.</_></rects>
      <tilted>0</tilted></_>
    <_>
      <rects>
        <_>
          4 0 36 8 -1.</_>
        <_>
          22 0 18 8 2.</_></rects>
      <tilted>0</tilted></_>
    <_>
      <rects>
        <_>
          4 3 28 4 -1.</_>
        <_>
          4 3 14 4 2.</_></rects>
      <tilted>1</tilted></_>
    <_>
      <rects>
        <_>
          4 13 20 25 -1.</_>
        <_>
          9 13 10 25 2.</_></rects>
      <tilted>0</tilted></_>
    <_>
      <rects>
        <_>
          4 14 34 18 -1.</_>
        <_>
          4 23 34 9 2.</_></rects>
      <tilted>0</tilted></_>
    <_>
      <rects>
        <_>
          4 25 4 3 -1.</_>
        <_>
          3 26 4 1 3.</_></rects>
      <tilted>1</tilted></_>
    <_>
      <rects>
        <_>
          4 27 1 4 -1.</_>
        <_>
          3 28 1 2 2.</_></rects>
      <tilted>1</tilted></_>
    <_>
      <rects>
        <_>
          5 2 2 8 -1.</_>
        <_>
          5 2 1 4 2.</_>
        <_>
          6 6 1 4 2.</_></rects>
      <tilted>0</tilted></_>
    <_>
      <rects>
        <_>
          5 9 10 20 -1.</_>
        <_>
          10 9 5 20 2.</_></rects>
      <tilted>0</tilted></_>
    <_>
      <rects>
        <_>
          5 9 20 28 -1.</_>
        <_>
          5 9 10 14 2.</_>
        <_>
          15 23 10 14 2.</_></rects>
      <tilted>0</tilted></_>
    <_>
      <rects>
        <_>
          5 20 8 2 -1.</_>
        <_>
          9 20 4 2 2.</_></rects>
      <tilted>0</tilted></_>
    <_>
      <rects>
        <_>
          5 20 18 2 -1.</_>
        <_>
          5 21 18 1 2.</_></rects>
      <tilted>0</tilted></_>
    <_>
      <rects>
        <_>
          6 5 1 8 -1.</_>
        <_>
          6 7 1 4 2.</_></rects>
      <tilted>0</tilted></_>
    <_>
      <rects>
        <_>
          6 17 4 3 -1.</_>
        <_>
          8 17 2 3 2.</_></rects>
      <tilted>0</tilted></_>
    <_>
      <rects>
        <_>
          6 17 8 2 -1.</_>
        <_>
          10 17 4 2 2.</_></rects>
      <tilted>0</tilted></_>
    <_>
      <rects>
        <_>
          6 19 20 4 -1.</_>
        <_>
          16 19 10 4 2.</_></rects>
      <tilted>0</tilted></_>
    <_>
      <rects>
        <_>
          6 38 33 2 -1.</_>
        <_>
          6 39 33 1 2.</_></rects>
      <tilted>0</tilted></_>
    <_>
      <rects>
        <_>
          7 0 9 15 -1.</_>
        <_>
          10 5 3 5 9.</_></rects>
      <tilted>0</tilted></_>
    <_>
      <rects>
        <_>
          7 3 28 2 -1.</_>
        <_>
          14 10 14 2 2.</_></rects>
      <tilted>1</tilted></_>
    <_>
      <rects>
        <_>
          7 18 30 9 -1.</_>
        <_>
          17 21 10 3 9.</_></rects>
      <tilted>0</tilted></_>
    <_>
      <rects>
        <_>
          7 19 31 8 -1.</_>
        <_>
          7 23 31 4 2.</_></rects>
      <tilted>0</tilted></_>
    <_>
      <rects>
        <_>
          8 11 20 12 -1.</_>
        <_>
          18 11 10 12 2.</_></rects>
      <tilted>0</tilted></_>
    <_>
      <rects>
        <_>
          8 12 20 6 -1.</_>
        <_>
          13 17 10 6 2.</_></rects>
      <tilted>1</tilted></_>
    <_>
      <rects>
        <_>
          8 13 3 4 -1.</_>
        <_>
          8 15 3 2 2.</_></rects>
      <tilted>0</tilted></_>
    <_>
      <rects>
        <_>
          8 16 2 4 -1.</_>
        <_>
          8 16 2 2 2.</_></rects>
      <tilted>1</tilted></_>
    <_>
      <rects>
        <_>
          8 19 31 6 -1.</_>
        <_>
          8 22 31 3 2.</_></rects>
      <tilted>0</tilted></_>
    <_>
      <rects>
        <_>
          8 22 6 8 -1.</_>
        <_>
          6 24 6 4 2.</_></rects>
      <tilted>1</tilted></_>
    <_>
      <rects>
        <_>
          8 25 6 8 -1.</_>
        <_>
          6 27 6 4 2.</_></rects>
      <tilted>1</tilted></_>
    <_>
      <rects>
        <_>
          9 5 1 28 -1.</_>
        <_>
          9 19 1 14 2.</_></rects>
      <tilted>0</tilted></_>
    <_>
      <rects>
        <_>
          9 5 15 27 -1.</_>
        <_>
          14 14 5 9 9.</_></rects>
      <tilted>0</tilted></_>
    <_>
      <rects>
        <_>
          9 8 18 14 -1.</_>
        <_>
          18 8 9 14 2.</_></rects>
      <tilted>0</tilted></_>
    <_>
      <rects>
        <_>
          9 8 28 26 -1.</_>
        <_>
          9 21 28 13 2.</_></rects>
      <tilted>0</tilted></_>
    <_>
      <rects>
        <_>
          9 15 27 15 -1.</_>
        <_>
          18 20 9 5 9.</_></rects>
      <tilted>0</tilted></_>
    <_>
      <rects>
        <_>
          10 0 26 10 -1.</_>
        <_>
          10 0 13 10 2.</_></rects>
      <tilted>1</tilted></_>
    <_>
      <rects>
        <_>
          10 3 26 32 -1.</_>
        <_>
          10 19 26 16 2.</_></rects>
      <tilted>0</tilted></_>
    <_>
      <rects>
        <_>
          10 4 8 27 -1.</_>
        <_>
          10 13 8 9 3.</_></rects>
      <tilted>0</tilted></_>
    <_>
      <rects>
        <_>
          10 5 1 24 -1.</_>
        <_>
          10 17 1 12 2.</_></rects>
      <tilted>0</tilted></_>
    <_>
      <rects>
        <_>
          10 6 6 21 -1.</_>
        <_>
          10 13 6 7 3.</_></rects>
      <tilted>0</tilted></_>
    <_>
      <rects>
        <_>
          10 6 27 21 -1.</_>
        <_>
          10 13 27 7 3.</_></rects>
      <tilted>0</tilted></_>
    <_>
      <rects>
        <_>
          10 23 2 2 -1.</_>
        <_>
          10 23 1 2 2.</_></rects>
      <tilted>1</tilted></_>
    <_>
      <rects>
        <_>
          11 1 3 3 -1.</_>
        <_>
          12 2 1 1 9.</_></rects>
      <tilted>0</tilted></_>
    <_>
      <rects>
        <_>
          11 1 4 20 -1.</_>
        <_>
          11 6 4 10 2.</_></rects>
      <tilted>0</tilted></_>
    <_>
      <rects>
        <_>
          11 3 7 6 -1.</_>
        <_>
          11 5 7 2 3.</_></rects>
      <tilted>0</tilted></_>
    <_>
      <rects>
        <_>
          11 3 9 8 -1.</_>
        <_>
          11 5 9 4 2.</_></rects>
      <tilted>0</tilted></_>
    <_>
      <rects>
        <_>
          11 5 18 11 -1.</_>
        <_>
          17 11 6 11 3.</_></rects>
      <tilted>1</tilted></_>
    <_>
      <rects>
        <_>
          11 7 8 6 -1.</_>
        <_>
          11 9 8 2 3.</_></rects>
      <tilted>0</tilted></_>
    <_>
      <rects>
        <_>
          11 9 11 6 -1.</_>
        <_>
          11 11 11 2 3.</_></rects>
      <tilted>0</tilted></_>
    <_>
      <rects>
        <_>
          11 10 16 2 -1.</_>
        <_>
          11 10 8 1 2.</_>
        <_>
          19 11 8 1 2.</_></rects>
      <tilted>0</tilted></_>
    <_>
      <rects>
        <_>
          11 13 20 2 -1.</_>
        <_>
          16 18 10 2 2.</_></rects>
      <tilted>1</tilted></_>
    <_>
      <rects>
        <_>
          11 18 1 4 -1.</_>
        <_>
          11 18 1 2 2.</_></rects>
      <tilted>1</tilted></_>
    <_>
      <rects>
        <_>
          11 25 2 6 -1.</_>
        <_>
          11 25 1 6 2.</_></rects>
      <tilted>1</tilted></_>
    <_>
      <rects>
        <_>
          12 0 1 3 -1.</_>
        <_>
          12 1 1 1 3.</_></rects>
      <tilted>0</tilted></_>
    <_>
      <rects>
        <_>
          12 1 4 2 -1.</_>
        <_>
          12 1 2 1 2.</_>
        <_>
          14 2 2 1 2.</_></rects>
      <tilted>0</tilted></_>
    <_>
      <rects>
        <_>
          12 1 18 20 -1.</_>
        <_>
          12 1 9 10 2.</_>
        <_>
          21 11 9 10 2.</_></rects>
      <tilted>0</tilted></_>
    <_>
      <rects>
        <_>
          12 2 24 2 -1.</_>
        <_>
          12 2 12 2 2.</_></rects>
      <tilted>1</tilted></_>
    <_>
      <rects>
        <_>
          12 3 6 6 -1.</_>
        <_>
          12 5 6 2 3.</_></rects>
      <tilted>0</tilted></_>
    <_>
      <rects>
        <_>
          12 3 28 30 -1.</_>
        <_>
          12 18 28 15 2.</_></rects>
      <tilted>0</tilted></_>
    <_>
      <rects>
        <_>
          12 5 15 9 -1.</_>
        <_>
          17 10 5 9 3.</_></rects>
      <tilted>1</tilted></_>
    <_>
      <rects>
        <_>
          12 5 7 6 -1.</_>
        <_>
          12 7 7 2 3.</_></rects>
      <tilted>0</tilted></_>
    <_>
      <rects>
        <_>
          12 7 2 3 -1.</_>
        <_>
          12 8 2 1 3.</_></rects>
      <tilted>0</tilted></_>
    <_>
      <rects>
        <_>
          12 10 19 6 -1.</_>
        <_>
          12 13 19 3 2.</_></rects>
      <tilted>0</tilted></_>
    <_>
      <rects>
        <_>
          12 15 6 3 -1.</_>
        <_>
          15 15 3 3 2.</_></rects>
      <tilted>0</tilted></_>
    <_>
      <rects>
        <_>
          12 17 6 1 -1.</_>
        <_>
          15 17 3 1 2.</_></rects>
      <tilted>0</tilted></_>
    <_>
      <rects>
        <_>
          12 17 17 4 -1.</_>
        <_>
          12 19 17 2 2.</_></rects>
      <tilted>0</tilted></_>
    <_>
      <rects>
        <_>
          12 17 23 9 -1.</_>
        <_>
          12 20 23 3 3.</_></rects>
      <tilted>0</tilted></_>
    <_>
      <rects>
        <_>
          12 18 6 1 -1.</_>
        <_>
          15 18 3 1 2.</_></rects>
      <tilted>0</tilted></_>
    <_>
      <rects>
        <_>
          12 18 3 4 -1.</_>
        <_>
          12 18 3 2 2.</_></rects>
      <tilted>1</tilted></_>
    <_>
      <rects>
        <_>
          12 25 2 12 -1.</_>
        <_>
          8 29 2 4 3.</_></rects>
      <tilted>1</tilted></_>
    <_>
      <rects>
        <_>
          13 17 1 6 -1.</_>
        <_>
          13 17 1 3 2.</_></rects>
      <tilted>1</tilted></_>
    <_>
      <rects>
        <_>
          13 19 1 6 -1.</_>
        <_>
          13 19 1 3 2.</_></rects>
      <tilted>1</tilted></_>
    <_>
      <rects>
        <_>
          14 1 6 3 -1.</_>
        <_>
          14 2 6 1 3.</_></rects>
      <tilted>0</tilted></_>
    <_>
      <rects>
        <_>
          14 2 10 34 -1.</_>
        <_>
          14 19 10 17 2.</_></rects>
      <tilted>0</tilted></_>
    <_>
      <rects>
        <_>
          14 6 15 10 -1.</_>
        <_>
          19 11 5 10 3.</_></rects>
      <tilted>1</tilted></_>
    <_>
      <rects>
        <_>
          14 6 9 8 -1.</_>
        <_>
          14 8 9 4 2.</_></rects>
      <tilted>0</tilted></_>
    <_>
      <rects>
        <_>
          14 7 7 4 -1.</_>
        <_>
          14 8 7 2 2.</_></rects>
      <tilted>0</tilted></_>
    <_>
      <rects>
        <_>
          14 10 16 24 -1.</_>
        <_>
          14 10 8 12 2.</_>
        <_>
          22 22 8 12 2.</_></rects>
      <tilted>0</tilted></_>
    <_>
      <rects>
        <_>
          14 11 15 7 -1.</_>
        <_>
          19 16 5 7 3.</_></rects>
      <tilted>1</tilted></_>
    <_>
      <rects>
        <_>
          14 11 17 4 -1.</_>
        <_>
          14 11 17 2 2.</_></rects>
      <tilted>1</tilted></_>
    <_>
      <rects>
        <_>
          14 14 18 4 -1.</_>
        <_>
          14 14 18 2 2.</_></rects>
      <tilted>1</tilted></_>
    <_>
      <rects>
        <_>
          14 16 5 4 -1.</_>
        <_>
          14 18 5 2 2.</_></rects>
      <tilted>0</tilted></_>
    <_>
      <rects>
        <_>
          14 21 24 18 -1.</_>
        <_>
          22 27 8 6 9.</_></rects>
      <tilted>0</tilted></_>
    <_>
      <rects>
        <_>
          15 0 4 3 -1.</_>
        <_>
          15 1 4 1 3.</_></rects>
      <tilted>0</tilted></_>
    <_>
      <rects>
        <_>
          15 4 15 12 -1.</_>
        <_>
          20 9 5 12 3.</_></rects>
      <tilted>1</tilted></_>
    <_>
      <rects>
        <_>
          15 5 4 4 -1.</_>
        <_>
          15 6 4 2 2.</_></rects>
      <tilted>0</tilted></_>
    <_>
      <rects>
        <_>
          15 6 7 9 -1.</_>
        <_>
          15 9 7 3 3.</_></rects>
      <tilted>0</tilted></_>
    <_>
      <rects>
        <_>
          15 7 12 7 -1.</_>
        <_>
          18 10 6 7 2.</_></rects>
      <tilted>1</tilted></_>
    <_>
      <rects>
        <_>
          15 7 5 4 -1.</_>
        <_>
          15 8 5 2 2.</_></rects>
      <tilted>0</tilted></_>
    <_>
      <rects>
        <_>
          15 9 10 4 -1.</_>
        <_>
          15 10 10 2 2.</_></rects>
      <tilted>0</tilted></_>
    <_>
      <rects>
        <_>
          15 13 16 2 -1.</_>
        <_>
          15 13 8 1 2.</_>
        <_>
          23 14 8 1 2.</_></rects>
      <tilted>0</tilted></_>
    <_>
      <rects>
        <_>
          16 1 5 8 -1.</_>
        <_>
          16 3 5 4 2.</_></rects>
      <tilted>0</tilted></_>
    <_>
      <rects>
        <_>
          16 1 10 8 -1.</_>
        <_>
          16 3 10 4 2.</_></rects>
      <tilted>0</tilted></_>
    <_>
      <rects>
        <_>
          16 3 3 9 -1.</_>
        <_>
          17 6 1 3 9.</_></rects>
      <tilted>0</tilted></_>
    <_>
      <rects>
        <_>
          16 5 6 3 -1.</_>
        <_>
          16 6 6 1 3.</_></rects>
      <tilted>0</tilted></_>
    <_>
      <rects>
        <_>
          16 6 10 9 -1.</_>
        <_>
          16 9 10 3 3.</_></rects>
      <tilted>0</tilted></_>
    <_>
      <rects>
        <_>
          16 15 1 4 -1.</_>
        <_>
          16 15 1 2 2.</_></rects>
      <tilted>1</tilted></_>
    <_>
      <rects>
        <_>
          16 16 1 4 -1.</_>
        <_>
          16 16 1 2 2.</_></rects>
      <tilted>1</tilted></_>
    <_>
      <rects>
        <_>
          16 18 1 6 -1.</_>
        <_>
          16 18 1 3 2.</_></rects>
      <tilted>1</tilted></_>
    <_>
      <rects>
        <_>
          16 21 24 3 -1.</_>
        <_>
          28 21 12 3 2.</_></rects>
      <tilted>0</tilted></_>
    <_>
      <rects>
        <_>
          17 0 12 26 -1.</_>
        <_>
          17 13 12 13 2.</_></rects>
      <tilted>0</tilted></_>
    <_>
      <rects>
        <_>
          17 1 10 16 -1.</_>
        <_>
          22 1 5 16 2.</_></rects>
      <tilted>0</tilted></_>
    <_>
      <rects>
        <_>
          17 1 10 6 -1.</_>
        <_>
          17 3 10 2 3.</_></rects>
      <tilted>0</tilted></_>
    <_>
      <rects>
        <_>
          17 3 9 26 -1.</_>
        <_>
          17 16 9 13 2.</_></rects>
      <tilted>0</tilted></_>
    <_>
      <rects>
        <_>
          17 5 2 4 -1.</_>
        <_>
          17 6 2 2 2.</_></rects>
      <tilted>0</tilted></_>
    <_>
      <rects>
        <_>
          17 6 6 8 -1.</_>
        <_>
          17 8 6 4 2.</_></rects>
      <tilted>0</tilted></_>
    <_>
      <rects>
        <_>
          17 7 6 6 -1.</_>
        <_>
          17 9 6 2 3.</_></rects>
      <tilted>0</tilted></_>
    <_>
      <rects>
        <_>
          17 11 9 8 -1.</_>
        <_>
          20 14 3 8 3.</_></rects>
      <tilted>1</tilted></_>
    <_>
      <rects>
        <_>
          17 14 16 2 -1.</_>
        <_>
          17 14 16 1 2.</_></rects>
      <tilted>1</tilted></_>
    <_>
      <rects>
        <_>
          17 17 2 2 -1.</_>
        <_>
          17 17 1 2 2.</_></rects>
      <tilted>1</tilted></_>
    <_>
      <rects>
        <_>
          17 18 1 2 -1.</_>
        <_>
          17 19 1 1 2.</_></rects>
      <tilted>0</tilted></_>
    <_>
      <rects>
        <_>
          17 20 1 8 -1.</_>
        <_>
          15 22 1 4 2.</_></rects>
      <tilted>1</tilted></_>
    <_>
      <rects>
        <_>
          17 20 12 12 -1.</_>
        <_>
          21 24 4 4 9.</_></rects>
      <tilted>0</tilted></_>
    <_>
      <rects>
        <_>
          17 23 20 4 -1.</_>
        <_>
          27 23 10 4 2.</_></rects>
      <tilted>0</tilted></_>
    <_>
      <rects>
        <_>
          17 31 5 9 -1.</_>
        <_>
          17 34 5 3 3.</_></rects>
      <tilted>0</tilted></_>
    <_>
      <rects>
        <_>
          17 37 2 3 -1.</_>
        <_>
          17 38 2 1 3.</_></rects>
      <tilted>0</tilted></_>
    <_>
      <rects>
        <_>
          18 1 5 6 -1.</_>
        <_>
          18 3 5 2 3.</_></rects>
      <tilted>0</tilted></_>
    <_>
      <rects>
        <_>
          18 8 5 3 -1.</_>
        <_>
          18 9 5 1 3.</_></rects>
      <tilted>0</tilted></_>
    <_>
      <rects>
        <_>
          18 11 2 22 -1.</_>
        <_>
          18 11 1 11 2.</_>
        <_>
          19 22 1 11 2.</_></rects>
      <tilted>0</tilted></_>
    <_>
      <rects>
        <_>
          18 12 15 5 -1.</_>
        <_>
          23 17 5 5 3.</_></rects>
      <tilted>1</tilted></_>
    <_>
      <rects>
        <_>
          18 13 14 6 -1.</_>
        <_>
          18 13 14 3 2.</_></rects>
      <tilted>1</tilted></_>
    <_>
      <rects>
        <_>
          18 13 17 8 -1.</_>
        <_>
          18 13 17 4 2.</_></rects>
      <tilted>1</tilted></_>
    <_>
      <rects>
        <_>
          18 15 2 1 -1.</_>
        <_>
          18 15 1 1 2.</_></rects>
      <tilted>1</tilted></_>
    <_>
      <rects>
        <_>
          18 15 2 2 -1.</_>
        <_>
          18 15 1 2 2.</_></rects>
      <tilted>1</tilted></_>
    <_>
      <rects>
        <_>
          18 15 2 6 -1.</_>
        <_>
          18 15 2 3 2.</_></rects>
      <tilted>1</tilted></_>
    <_>
      <rects>
        <_>
          19 0 20 2 -1.</_>
        <_>
          29 0 10 2 2.</_></rects>
      <tilted>0</tilted></_>
    <_>
      <rects>
        <_>
          19 5 10 32 -1.</_>
        <_>
          19 5 5 16 2.</_>
        <_>
          24 21 5 16 2.</_></rects>
      <tilted>0</tilted></_>
    <_>
      <rects>
        <_>
          19 7 2 16 -1.</_>
        <_>
          20 7 1 16 2.</_></rects>
      <tilted>0</tilted></_>
    <_>
      <rects>
        <_>
          19 10 15 7 -1.</_>
        <_>
          24 15 5 7 3.</_></rects>
      <tilted>1</tilted></_>
    <_>
      <rects>
        <_>
          19 12 9 12 -1.</_>
        <_>
          22 16 3 4 9.</_></rects>
      <tilted>0</tilted></_>
    <_>
      <rects>
        <_>
          19 12 15 6 -1.</_>
        <_>
          24 17 5 6 3.</_></rects>
      <tilted>1</tilted></_>
    <_>
      <rects>
        <_>
          19 12 16 6 -1.</_>
        <_>
          19 12 16 3 2.</_></rects>
      <tilted>1</tilted></_>
    <_>
      <rects>
        <_>
          20 0 11 12 -1.</_>
        <_>
          20 0 11 6 2.</_></rects>
      <tilted>1</tilted></_>
    <_>
      <rects>
        <_>
          20 8 4 18 -1.</_>
        <_>
          21 8 2 18 2.</_></rects>
      <tilted>0</tilted></_>
    <_>
      <rects>
        <_>
          20 12 8 7 -1.</_>
        <_>
          20 12 4 7 2.</_></rects>
      <tilted>1</tilted></_>
    <_>
      <rects>
        <_>
          20 14 12 4 -1.</_>
        <_>
          24 18 4 4 3.</_></rects>
      <tilted>1</tilted></_>
    <_>
      <rects>
        <_>
          20 15 1 2 -1.</_>
        <_>
          20 15 1 1 2.</_></rects>
      <tilted>1</tilted></_>
    <_>
      <rects>
        <_>
          20 18 3 1 -1.</_>
        <_>
          21 19 1 1 3.</_></rects>
      <tilted>1</tilted></_>
    <_>
      <rects>
        <_>
          20 18 6 2 -1.</_>
        <_>
          22 20 2 2 3.</_></rects>
      <tilted>1</tilted></_>
    <_>
      <rects>
        <_>
          21 1 15 20 -1.</_>
        <_>
          21 1 15 10 2.</_></rects>
      <tilted>1</tilted></_>
    <_>
      <rects>
        <_>
          21 3 6 32 -1.</_>
        <_>
          21 11 6 16 2.</_></rects>
      <tilted>0</tilted></_>
    <_>
      <rects>
        <_>
          21 9 15 9 -1.</_>
        <_>
          26 14 5 9 3.</_></rects>
      <tilted>1</tilted></_>
    <_>
      <rects>
        <_>
          21 11 15 19 -1.</_>
        <_>
          26 11 5 19 3.</_></rects>
      <tilted>0</tilted></_>
    <_>
      <rects>
        <_>
          21 13 16 4 -1.</_>
        <_>
          25 17 8 4 2.</_></rects>
      <tilted>1</tilted></_>
    <_>
      <rects>
        <_>
          21 14 5 6 -1.</_>
        <_>
          19 16 5 2 3.</_></rects>
      <tilted>1</tilted></_>
    <_>
      <rects>
        <_>
          21 14 9 6 -1.</_>
        <_>
          19 16 9 2 3.</_></rects>
      <tilted>1</tilted></_>
    <_>
      <rects>
        <_>
          21 20 2 1 -1.</_>
        <_>
          21 20 1 1 2.</_></rects>
      <tilted>1</tilted></_>
    <_>
      <rects>
        <_>
          22 11 18 9 -1.</_>
        <_>
          19 14 18 3 3.</_></rects>
      <tilted>1</tilted></_>
    <_>
      <rects>
        <_>
          22 13 18 27 -1.</_>
        <_>
          28 22 6 9 9.</_></rects>
      <tilted>0</tilted></_>
    <_>
      <rects>
        <_>
          22 27 15 12 -1.</_>
        <_>
          27 27 5 12 3.</_></rects>
      <tilted>0</tilted></_>
    <_>
      <rects>
        <_>
          23 0 2 3 -1.</_>
        <_>
          23 1 2 1 3.</_></rects>
      <tilted>0</tilted></_>
    <_>
      <rects>
        <_>
          23 14 5 9 -1.</_>
        <_>
          20 17 5 3 3.</_></rects>
      <tilted>1</tilted></_>
    <_>
      <rects>
        <_>
          23 20 2 3 -1.</_>
        <_>
          23 20 1 3 2.</_></rects>
      <tilted>1</tilted></_>
    <_>
      <rects>
        <_>
          23 31 6 1 -1.</_>
        <_>
          26 31 3 1 2.</_></rects>
      <tilted>0</tilted></_>
    <_>
      <rects>
        <_>
          24 6 16 34 -1.</_>
        <_>
          24 6 8 17 2.</_>
        <_>
          32 23 8 17 2.</_></rects>
      <tilted>0</tilted></_>
    <_>
      <rects>
        <_>
          25 0 10 4 -1.</_>
        <_>
          25 0 10 2 2.</_></rects>
      <tilted>1</tilted></_>
    <_>
      <rects>
        <_>
          25 1 9 2 -1.</_>
        <_>
          25 1 9 1 2.</_></rects>
      <tilted>1</tilted></_>
    <_>
      <rects>
        <_>
          25 2 2 22 -1.</_>
        <_>
          25 2 2 11 2.</_></rects>
      <tilted>1</tilted></_>
    <_>
      <rects>
        <_>
          25 3 2 18 -1.</_>
        <_>
          25 3 2 9 2.</_></rects>
      <tilted>1</tilted></_>
    <_>
      <rects>
        <_>
          25 13 6 8 -1.</_>
        <_>
          27 15 2 8 3.</_></rects>
      <tilted>1</tilted></_>
    <_>
      <rects>
        <_>
          25 14 11 6 -1.</_>
        <_>
          23 16 11 2 3.</_></rects>
      <tilted>1</tilted></_>
    <_>
      <rects>
        <_>
          26 1 1 3 -1.</_>
        <_>
          26 2 1 1 3.</_></rects>
      <tilted>0</tilted></_>
    <_>
      <rects>
        <_>
          26 1 2 3 -1.</_>
        <_>
          26 2 2 1 3.</_></rects>
      <tilted>0</tilted></_>
    <_>
      <rects>
        <_>
          26 2 2 3 -1.</_>
        <_>
          26 3 2 1 3.</_></rects>
      <tilted>0</tilted></_>
    <_>
      <rects>
        <_>
          26 11 12 7 -1.</_>
        <_>
          26 11 6 7 2.</_></rects>
      <tilted>1</tilted></_>
    <_>
      <rects>
        <_>
          26 15 10 9 -1.</_>
        <_>
          26 15 5 9 2.</_></rects>
      <tilted>1</tilted></_>
    <_>
      <rects>
        <_>
          26 27 6 2 -1.</_>
        <_>
          29 27 3 2 2.</_></rects>
      <tilted>0</tilted></_>
    <_>
      <rects>
        <_>
          26 29 2 3 -1.</_>
        <_>
          27 29 1 3 2.</_></rects>
      <tilted>0</tilted></_>
    <_>
      <rects>
        <_>
          27 4 2 18 -1.</_>
        <_>
          27 4 2 9 2.</_></rects>
      <tilted>1</tilted></_>
    <_>
      <rects>
        <_>
          27 27 6 6 -1.</_>
        <_>
          30 27 3 6 2.</_></rects>
      <tilted>0</tilted></_>
    <_>
      <rects>
        <_>
          28 3 2 35 -1.</_>
        <_>
          29 3 1 35 2.</_></rects>
      <tilted>0</tilted></_>
    <_>
      <rects>
        <_>
          28 5 4 28 -1.</_>
        <_>
          29 6 2 28 2.</_></rects>
      <tilted>1</tilted></_>
    <_>
      <rects>
        <_>
          28 7 1 9 -1.</_>
        <_>
          25 10 1 3 3.</_></rects>
      <tilted>1</tilted></_>
    <_>
      <rects>
        <_>
          28 10 12 30 -1.</_>
        <_>
          32 20 4 10 9.</_></rects>
      <tilted>0</tilted></_>
    <_>
      <rects>
        <_>
          28 12 8 6 -1.</_>
        <_>
          26 14 8 2 3.</_></rects>
      <tilted>1</tilted></_>
    <_>
      <rects>
        <_>
          28 13 12 2 -1.</_>
        <_>
          32 13 4 2 3.</_></rects>
      <tilted>0</tilted></_>
    <_>
      <rects>
        <_>
          28 13 8 6 -1.</_>
        <_>
          28 13 4 6 2.</_></rects>
      <tilted>1</tilted></_>
    <_>
      <rects>
        <_>
          28 26 8 1 -1.</_>
        <_>
          32 26 4 1 2.</_></rects>
      <tilted>0</tilted></_>
    <_>
      <rects>
        <_>
          28 27 4 3 -1.</_>
        <_>
          30 27 2 3 2.</_></rects>
      <tilted>0</tilted></_>
    <_>
      <rects>
        <_>
          28 28 2 2 -1.</_>
        <_>
          29 28 1 2 2.</_></rects>
      <tilted>0</tilted></_>
    <_>
      <rects>
        <_>
          28 28 4 1 -1.</_>
        <_>
          30 28 2 1 2.</_></rects>
      <tilted>0</tilted></_>
    <_>
      <rects>
        <_>
          29 34 2 3 -1.</_>
        <_>
          29 35 2 1 3.</_></rects>
      <tilted>0</tilted></_>
    <_>
      <rects>
        <_>
          30 2 1 3 -1.</_>
        <_>
          30 3 1 1 3.</_></rects>
      <tilted>0</tilted></_>
    <_>
      <rects>
        <_>
          30 21 10 17 -1.</_>
        <_>
          35 21 5 17 2.</_></rects>
      <tilted>0</tilted></_>
    <_>
      <rects>
        <_>
          30 23 1 4 -1.</_>
        <_>
          30 25 1 2 2.</_></rects>
      <tilted>0</tilted></_>
    <_>
      <rects>
        <_>
          30 25 6 3 -1.</_>
        <_>
          33 25 3 3 2.</_></rects>
      <tilted>0</tilted></_>
    <_>
      <rects>
        <_>
          31 11 9 12 -1.</_>
        <_>
          27 15 9 4 3.</_></rects>
      <tilted>1</tilted></_>
    <_>
      <rects>
        <_>
          31 22 2 4 -1.</_>
        <_>
          30 23 2 2 2.</_></rects>
      <tilted>1</tilted></_>
    <_>
      <rects>
        <_>
          31 25 2 2 -1.</_>
        <_>
          31 25 1 2 2.</_></rects>
      <tilted>1</tilted></_>
    <_>
      <rects>
        <_>
          32 23 4 2 -1.</_>
        <_>
          34 23 2 2 2.</_></rects>
      <tilted>0</tilted></_>
    <_>
      <rects>
        <_>
          32 26 2 2 -1.</_>
        <_>
          32 26 2 1 2.</_></rects>
      <tilted>1</tilted></_>
    <_>
      <rects>
        <_>
          32 26 6 14 -1.</_>
        <_>
          32 33 6 7 2.</_></rects>
      <tilted>0</tilted></_>
    <_>
      <rects>
        <_>
          33 0 5 16 -1.</_>
        <_>
          29 4 5 8 2.</_></rects>
      <tilted>1</tilted></_>
    <_>
      <rects>
        <_>
          33 20 6 4 -1.</_>
        <_>
          36 20 3 4 2.</_></rects>
      <tilted>0</tilted></_>
    <_>
      <rects>
        <_>
          33 24 2 4 -1.</_>
        <_>
          33 24 1 4 2.</_></rects>
      <tilted>1</tilted></_>
    <_>
      <rects>
        <_>
          33 27 1 2 -1.</_>
        <_>
          33 27 1 1 2.</_></rects>
      <tilted>1</tilted></_>
    <_>
      <rects>
        <_>
          34 20 5 20 -1.</_>
        <_>
          34 30 5 10 2.</_></rects>
      <tilted>0</tilted></_>
    <_>
      <rects>
        <_>
          34 24 4 2 -1.</_>
        <_>
          36 24 2 2 2.</_></rects>
      <tilted>0</tilted></_>
    <_>
      <rects>
        <_>
          34 25 1 4 -1.</_>
        <_>
          34 25 1 2 2.</_></rects>
      <tilted>1</tilted></_>
    <_>
      <rects>
        <_>
          35 24 2 3 -1.</_>
        <_>
          36 24 1 3 2.</_></rects>
      <tilted>0</tilted></_>
    <_>
      <rects>
        <_>
          36 4 4 32 -1.</_>
        <_>
          38 4 2 32 2.</_></rects>
      <tilted>0</tilted></_>
    <_>
      <rects>
        <_>
          36 9 3 2 -1.</_>
        <_>
          37 9 1 2 3.</_></rects>
      <tilted>0</tilted></_>
    <_>
      <rects>
        <_>
          36 24 1 2 -1.</_>
        <_>
          36 24 1 1 2.</_></rects>
      <tilted>1</tilted></_>
    <_>
      <rects>
        <_>
          36 24 1 6 -1.</_>
        <_>
          36 24 1 3 2.</_></rects>
      <tilted>1</tilted></_>
    <_>
      <rects>
        <_>
          37 8 2 16 -1.</_>
        <_>
          37 8 1 8 2.</_>
        <_>
          38 16 1 8 2.</_></rects>
      <tilted>0</tilted></_>
    <_>
      <rects>
        <_>
          37 9 2 16 -1.</_>
        <_>
          37 9 1 8 2.</_>
        <_>
          38 17 1 8 2.</_></rects>
      <tilted>0</tilted></_>
    <_>
      <rects>
        <_>
          37 10 3 6 -1.</_>
        <_>
          35 12 3 2 3.</_></rects>
      <tilted>1</tilted></_>
    <_>
      <rects>
        <_>
          37 11 3 1 -1.</_>
        <_>
          38 11 1 1 3.</_></rects>
      <tilted>0</tilted></_>
    <_>
      <rects>
        <_>
          37 11 3 17 -1.</_>
        <_>
          38 11 1 17 3.</_></rects>
      <tilted>0</tilted></_>
    <_>
      <rects>
        <_>
          37 16 3 1 -1.</_>
        <_>
          38 16 1 1 3.</_></rects>
      <tilted>0</tilted></_>
    <_>
      <rects>
        <_>
          37 16 3 13 -1.</_>
        <_>
          38 16 1 13 3.</_></rects>
      <tilted>0</tilted></_>
    <_>
      <rects>
        <_>
          38 9 2 22 -1.</_>
        <_>
          38 9 1 11 2.</_>
        <_>
          39 20 1 11 2.</_></rects>
      <tilted>0</tilted></_>
    <_>
      <rects>
        <_>
          38 11 2 19 -1.</_>
        <_>
          39 11 1 19 2.</_></rects>
      <tilted>0</tilted></_>
    <_>
      <rects>
        <_>
          38 13 2 18 -1.</_>
        <_>
          38 13 1 9 2.</_>
        <_>
          39 22 1 9 2.</_></rects>
      <tilted>0</tilted></_>
    <_>
      <rects>
        <_>
          38 20 2 10 -1.</_>
        <_>
          38 20 1 5 2.</_>
        <_>
          39 25 1 5 2.</_></rects>
      <tilted>0</tilted></_>
    <_>
      <rects>
        <_>
          38 21 1 2 -1.</_>
        <_>
          38 21 1 1 2.</_></rects>
      <tilted>1</tilted></_>
    <_>
      <rects>
        <_>
          38 26 2 12 -1.</_>
        <_>
          38 26 1 12 2.</_></rects>
      <tilted>1</tilted></_>
    <_>
      <rects>
        <_>
          39 5 1 3 -1.</_>
        <_>
          38 6 1 1 3.</_></rects>
      <tilted>1</tilted></_>
    <_>
      <rects>
        <_>
          39 27 1 12 -1.</_>
        <_>
          36 30 1 6 2.</_></rects>
      <tilted>1</tilted></_></features></cascade>
</opencv_storage>
