<?xml version="1.0"?>
<opencv_storage>
<stage6>
  <maxWeakCount>10</maxWeakCount>
  <stageThreshold>-1.0879008769989014e+00</stageThreshold>
  <weakClassifiers>
    <_>
      <internalNodes>
        0 -1 1497803 -1.3014754652976990e-01</internalNodes>
      <leafValues>
        6.6390043497085571e-01 -3.7735849618911743e-01</leafValues></_>
    <_>
      <internalNodes>
        0 -1 15758 7.8207448124885559e-02</internalNodes>
      <leafValues>
        -4.4794705510139465e-01 4.6922397613525391e-01</leafValues></_>
    <_>
      <internalNodes>
        0 -1 1954230 -9.6670730272307992e-05</internalNodes>
      <leafValues>
        -6.4863967895507812e-01 2.8674259781837463e-01</leafValues></_>
    <_>
      <internalNodes>
        0 -1 1680259 2.3771042469888926e-04</internalNodes>
      <leafValues>
        -5.8139371871948242e-01 3.8085952401161194e-01</leafValues></_>
    <_>
      <internalNodes>
        0 -1 826460 1.4331538113765419e-04</internalNodes>
      <leafValues>
        3.0936262011528015e-01 -5.5095010995864868e-01</leafValues></_>
    <_>
      <internalNodes>
        0 -1 656987 -3.1653046607971191e-02</internalNodes>
      <leafValues>
        1.5282242000102997e-01 -9.5156937837600708e-01</leafValues></_>
    <_>
      <internalNodes>
        0 -1 1099287 1.3692402839660645e-01</internalNodes>
      <leafValues>
        -4.1621410846710205e-01 4.4012349843978882e-01</leafValues></_>
    <_>
      <internalNodes>
        0 -1 768882 1.2920090556144714e-01</internalNodes>
      <leafValues>
        1.9860014319419861e-01 -8.8704454898834229e-01</leafValues></_>
    <_>
      <internalNodes>
        0 -1 912020 -6.1771064065396786e-04</internalNodes>
      <leafValues>
        8.4508407115936279e-01 -2.5579449534416199e-01</leafValues></_>
    <_>
      <internalNodes>
        0 -1 958020 1.3564585242420435e-03</internalNodes>
      <leafValues>
        2.3049999773502350e-01 -9.5240896940231323e-01</leafValues></_></weakClassifiers></stage6>
</opencv_storage>
