<?xml version="1.0"?>
<opencv_storage>
<stage5>
  <maxWeakCount>12</maxWeakCount>
  <stageThreshold>-1.4461244344711304e+00</stageThreshold>
  <weakClassifiers>
    <_>
      <internalNodes>
        0 -1 525447 -2.5398287922143936e-02</internalNodes>
      <leafValues>
        5.6308215856552124e-01 -6.3245820999145508e-01</leafValues></_>
    <_>
      <internalNodes>
        0 -1 1282610 1.7314514843747020e-04</internalNodes>
      <leafValues>
        5.1150739192962646e-01 -4.6067196130752563e-01</leafValues></_>
    <_>
      <internalNodes>
        0 -1 1336844 -5.4579772986471653e-03</internalNodes>
      <leafValues>
        -7.6208335161209106e-01 3.2735896110534668e-01</leafValues></_>
    <_>
      <internalNodes>
        0 -1 601400 -1.0148808360099792e-02</internalNodes>
      <leafValues>
        -8.9973223209381104e-01 1.8781548738479614e-01</leafValues></_>
    <_>
      <internalNodes>
        0 -1 253291 2.4534139037132263e-01</internalNodes>
      <leafValues>
        -5.0031971931457520e-01 4.3685242533683777e-01</leafValues></_>
    <_>
      <internalNodes>
        0 -1 1229029 2.2290255874395370e-02</internalNodes>
      <leafValues>
        -6.8341004848480225e-01 2.7532303333282471e-01</leafValues></_>
    <_>
      <internalNodes>
        0 -1 1131694 8.1312395632266998e-03</internalNodes>
      <leafValues>
        -3.1842237710952759e-01 5.8563083410263062e-01</leafValues></_>
    <_>
      <internalNodes>
        0 -1 942003 9.8680546507239342e-03</internalNodes>
      <leafValues>
        -4.1159030795097351e-01 4.9521735310554504e-01</leafValues></_>
    <_>
      <internalNodes>
        0 -1 1996910 1.5681493096053600e-04</internalNodes>
      <leafValues>
        2.5036031007766724e-01 -6.6384065151214600e-01</leafValues></_>
    <_>
      <internalNodes>
        0 -1 1977561 -7.8171273344196379e-05</internalNodes>
      <leafValues>
        -8.4200835227966309e-01 2.3286646604537964e-01</leafValues></_>
    <_>
      <internalNodes>
        0 -1 2033505 6.0712976846843958e-04</internalNodes>
      <leafValues>
        -3.6750647425651550e-01 5.2429640293121338e-01</leafValues></_>
    <_>
      <internalNodes>
        0 -1 1918959 -6.8696988746523857e-03</internalNodes>
      <leafValues>
        -7.4793970584869385e-01 2.5920498371124268e-01</leafValues></_></weakClassifiers></stage5>
</opencv_storage>
