<?xml version="1.0"?>
<opencv_storage>
<stage13>
  <maxWeakCount>7</maxWeakCount>
  <stageThreshold>-9.7650033235549927e-01</stageThreshold>
  <weakClassifiers>
    <_>
      <internalNodes>
        0 -1 202059 1.3010334805585444e-04</internalNodes>
      <leafValues>
        4.9621784687042236e-01 -9.2086333036422729e-01</leafValues></_>
    <_>
      <internalNodes>
        0 -1 202059 -2.9657272534677759e-05</internalNodes>
      <leafValues>
        -8.0140715837478638e-01 3.6693105101585388e-01</leafValues></_>
    <_>
      <internalNodes>
        0 -1 229340 -4.6017654240131378e-02</internalNodes>
      <leafValues>
        6.8755799531936646e-01 -3.5212284326553345e-01</leafValues></_>
    <_>
      <internalNodes>
        0 -1 237013 -2.6915606111288071e-02</internalNodes>
      <leafValues>
        8.6571717262268066e-01 -2.6092129945755005e-01</leafValues></_>
    <_>
      <internalNodes>
        0 -1 43104 -2.9602766153402627e-04</internalNodes>
      <leafValues>
        -7.1699005365371704e-01 3.3847227692604065e-01</leafValues></_>
    <_>
      <internalNodes>
        0 -1 258253 -2.2516679018735886e-04</internalNodes>
      <leafValues>
        -6.6215038299560547e-01 3.1084138154983521e-01</leafValues></_>
    <_>
      <internalNodes>
        0 -1 249888 1.6539198113605380e-03</internalNodes>
      <leafValues>
        2.8119269013404846e-01 -7.2553968429565430e-01</leafValues></_></weakClassifiers></stage13>
</opencv_storage>
